0.7730704112420437
0.0395691063897492
-0.28351286619652627
0.6973092152647342
0.20322671475724685
-0.96629214530943
0.5726170883279045
0.5613992852270331
0.4903851125771739
0.3884675030521165
0.5605946663630843
-0.41808424843726266
-0.6144534129683559
0.92670281912191
0.19679574610721895
0.9322502618040558
0.4523097111387939
-0.3448292502741761
0.2558647138664889
0.6138087697645371
-0.675740883925301
0.1505331567422794
-0.25924668743063606
-0.6908078222176297
-0.07067153736489495
0.6190172257593234
-0.35617785828882176
-0.6534080488887712
-0.33230303640296577
-0.5553127562321152
-0.6058660999933976
-0.8311836816533023
0.17871170428221572
-0.08061966250953057
0.5000554779158423
-0.19468290569159946
-0.356654599355741
-0.4831326161248875
-0.785754255869893
0.9669002615107601
-0.8889811621844993
0.1735757358189623
0.45055050135177194
-0.6127302938709336
-0.9038661912731204
0.5616273120424213
-0.36157763730040793
0.037837488250128795
-0.12309013354227166
0.2871143475085632
0.42968240247736916
0.5520784111103847
0.21772494948256105
0.21251426490193515
-0.24456319915773728
-0.861033614403399
0.6019277842607293
0.17664255994123668
0.8763190454589438
-0.8825199472540177
-0.4625959244636645
0.4600246619389696
-0.1705597720982105
0.6213260738824361
0.7288391897785098
0.7765267510063386
0.5340155487349507
0.41019656203957977
0.18893629923802163
-0.853592506498424
-0.5665245260237006
-0.8205459008975662
0.16663677425830556
0.5005199377665241
-1.0523891084308694
-0.624565029009054
-0.0928750386984178
0.6352079222754409
0.6914146111088051
-0.5095263888895019
0.9161743019484248
0.2413901555859076
-0.015413656523355357
0.5247915582762341
0.3155223019150011
0.7657482090383159
-0.741514813688053
-0.31469573972701026
0.5251188449428905
-0.06108188681359281
-0.1172928855717549
0.6865884947494122
0.9493655674173274
0.1633676569746071
0.8355596900839372
0.17030513439492387
0.6206257650972776
-0.6914520232593104
0.04803738270900954
0.5888544248082683
-0.6548249554411987
-0.8439589706665772
-0.75805239648987
-0.40125721777692547
-1.225968825447432
-0.6062271116801212
-0.5747512107554897
0.05958695293650698
-0.02263946536478682
-0.562091055393011
-0.16058362348568567
0.26300503615947957
0.1493553410852
-0.8784587473509267
0.9734286985927219
-0.32538603866639804
-0.4360842165606567
-0.22684567809177372
-0.9321219544035763
0.08413959495565096
-0.07233238511089836
0.5443200378642602
0.84657129803009
0.44016749953934275
1.4434958420062907
0.08885472635533063
1.0098420157273367
0.5702495653647208
-0.7663809609325608
-1.185868550313129
0.21946741229071268
-0.8714694228193919
-0.5480449201316826
-0.9335480552245666
-0.7821486202288692
0.20818247372513662
-0.1698471369469169
0.7916319567898596
0.11173930579561993
0.511033911370574
0.11790121478742077
-0.01201219537508491
-0.7178180312273645
-0.8831916076645184
-0.319232159679903
-0.9280130877280166
0.13827392140201747
0.6032915820308707
-0.060073657192980676
0.661108603325266
-0.2668490375863041
0.45453767038767023
0.7611926195156153
0.12628801199362277
-1.3718585939505425
-0.9191574566106389
-1.3054110364790008
-0.6546245774981312
-1.2470610707047056
0.14224193990300327
0.35333918699498895
-0.9353869486209607
0.4782963718960984
0.42760882598043154
-1.0143783735382343
0.4842012625911109
-0.5866269431607707
-0.5054916111844807
-0.3444116888162627
0.6169226215741301
0.09397999072603554
-0.5187047949308244
-0.8701072185194104
0.08330786942414395
0.5024152590560289
-0.9142936253019123
0.8188858737038255
-0.41773992247542246
0.5436454268420382
0.8685197136084023
1.1952762738316474
1.4439495591379108
1.7363546418993907
0.5848258297115286
1.223714760417942
1.0830686985721798
1.1745880555369785
0.8867248033916647
0.530834212450441
0.017874818655357616
-0.7848901665476691
-1.1549209830576528
-0.5916835460824532
-0.15460333969377074
0.8027394503578604
-0.305933285371646
0.14385345851190623
-0.18673558127245346
-0.08716227364564166
0.5757261136467234
0.4525388649523868
-0.41629986455182433
-0.46358354984366673
0.17740849872057288
-0.7567077437399682
0.25013561403292095
0.8896856749085865
1.5720619236379063
2.0436619987409057
2.4169184995104245
3.179329036037453
2.819811160278405
2.459953062822781
2.7259589645720967
1.6398706750950547
1.1621169839435217
1.561720542459499
0.7232405328500041
-0.28123824176006373
0.2502718132587705
0.058277480154943044
0.4552827131632179
-0.936409779801433
0.1146336247875154
-0.6806518354773075
-0.14450858009783332
-0.15483986194156563
-0.7689629707614646
-0.5039275455021318
-0.8621360666214596
-0.30006565815540726
0.11199051408716874
1.0845613925848552
0.25216784994183183
1.2452604445933924
0.7814364049881777
1.8482812863547702
1.3647912435766132
3.2144185591326817
2.5408829622978613
2.622543013988731
2.508408523779862
0.15708578250358585
1.8014593538194705
-0.29996102652927564
0.2512569714776169
-0.13686216230751258
-0.37512705116460004
-0.5120396269905063
-0.8838941001498847
0.854640129925472
-0.3423043349435077
0.7881369998662062
0.441132472601229
-0.6302414373085169
0.26090866909297217
0.6511135496549687
0.7001371299076679
0.46512431623463263
0.2959538183624072
-0.47948543903003643
0.9351290041186948
-0.1323732143102843
1.326003852121362
1.0918519036473495
2.294596082246511
2.211961222624969
1.6279510688514847
1.5354688453473193
0.4004674196209408
0.4810006746405873
0.46123187041900665
0.18435830482510399
-0.09006433742557607
0.46633404103355053
-0.3255111175139097
0.35543196031941326
-0.453042745958261
-0.5168985942478636
-0.4129281416377653
0.5860326186678855
-0.30836034895929
-0.28032239097345085
-0.5806282745139886
-0.7022807640856187
-0.39765109393054715
0.7935421324786406
-0.20281459266218851
0.6107864800807892
0.35579489013775834
0.8959898860217184
0.32191593003173113
0.8363159925326311
1.567168311099628
1.6641582363817498
0.9372968791657788
-0.30606763499690415
0.7371961504490327
0.9274727039628089
0.14783820401707684
1.6813621658314086
0.08058896604125762
0.7086231407620641
0.7279301531599499
0.29016284987172075
-0.30934007971173383
-0.031567255726694186
-0.07194457370717684
0.6928543778487828
-0.21403418377226496
-0.929364596198728
-0.056290751044812334
0.18370771906088712
0.6658413498138558
0.5776991012721276
-1.0248833405162558
0.11479366375482969
-0.4702564970388496
-0.06893583689658235
-0.09171904333888668
-0.8115786501836159
0.9763015798621772
1.591347517831473
0.12937175219197913
0.0034115768152058004
0.13103297765240723
0.2627128482323832
0.7768955595179129
1.0119602571687227
0.38676660987711525
0.5092967721433656
0.2653117497549822
0.19547961273987624
0.6512305650779782
0.18865199805035923
-0.509294821062364
-0.6384170934022086
-0.5988042344616891
-0.11716565705967213
0.7755192607528479
0.0775448196281002
-0.37335874144540543
0.34088803955565106
-1.1663242990421439
0.07786665795495303
-0.3779892188198477
-0.5461054191133388
-1.8696496960905384
-1.7772641007589862
-0.029174819586982995
1.0636605613792858
-0.45916301281506855
-0.3270215921769077
0.7236658606954529
0.13700932972871255
1.2317258559731503
1.1493293246049818
0.23609566100135765
0.8689791189822976
-0.5044596871004399
-0.19548923221694395
-0.1807775129165838
0.12112806800637013
0.46992108868081567
-0.012677332282814646
-0.3452481934136017
0.8147900446355383
-0.5158997662064095
0.45361481402303855
0.21927100370329358
-0.5030902682290422
-0.34637882900465944
-0.9479147786152881
-0.8244070263276684
-1.309379728779304
-2.7430132835249115
-1.7119471553052974
0.8195732277355074
0.777290773324073
0.25690213985072585
0.016368911109201124
0.19092114910753027
0.40335832402794497
-0.020329359784306927
-0.6300412164988853
0.17094405033766488
-0.3355662470987675
0.09307860555152517
-0.09410631733417042
-0.025540294263434977
-0.4565320430830896
0.034674416864470814
-0.4324347073739492
0.8079852437971984
-0.9282636141632852
-0.6982915228532423
-0.8779090646791466
-0.7957651161067016
-1.5807172753830057
-1.4941606125010658
-1.5385101279628697
-1.3977454952920052
-1.7324211660074547
-1.8899450841221528
-0.6978640579632608
1.0572755251823693
-0.5115793767544317
-0.6069710035054865
-1.6817570599562306
-0.05862904478368232
-0.8332699667365167
-1.096330195450215
-1.056170483729344
0.11572943787342033
-0.04009455122667484
-1.4726170158852294
-0.7710960217402775
0.048778487982255224
-0.5291330936671681
-0.8060594815249491
0.790506871626522
-0.1840825410613038
-0.6404404259238834
-0.09404336255120449
-0.82788813632561
-0.3094920850742317
-0.3766127283097287
-1.5779796409737883
-1.0836752420437843
-0.7879757945578248
-1.134033290785477
-0.8397671388713337
-0.5758289400406598
-0.008355446446956549
-1.1163440114818608
-0.963527006422939
-1.8141852931763154
-1.1812976846714773
-0.5455184595393053
-0.6857139484923265
-0.3221060089630742
0.030985664604317443
-1.3517337799763187
-0.16014409825041598
-0.035743033328834155
-0.5303425935111024
-0.11988345090235503
-0.17222654283075084
-0.531383821464843
0.7615451461571847
0.011506436384702676
-0.9199424277799099
-0.04809371393900299
-0.8559769783386595
-0.8337820100749592
-1.6983613754296294
-0.9451817485061877
-0.00889340465693301
-0.7020908024806589
-0.1854760268387958
-0.6887212230701635
0.5904750319039292
-1.8597101012541406
-1.2523810565603288
-0.986215733199725
-0.5338999067902895
-0.3435474770208019
-0.9496034223062528
-1.9310613567931345
-0.9704902057562511
-1.6023519015803098
0.0856537028881354
0.7722498149994739
-0.3667254550624801
0.7945785356636319
-0.9749984231731474
-0.31803146239193936
0.6187563744375911
-0.8692404559251412
0.6247499286344648
0.9271503668342905
-0.45795934875463806
0.14398532497705507
-0.9653292354378538
-0.514447390089557
-0.007840352305074658
-0.8777922514807912
-0.4371547722889139
-0.8167759643767729
-0.8125161263979439
-1.5430901811203221
-1.044114314339763
-0.8552924146049017
-0.8924048374415636
-0.6561619153383222
0.2589382213651935
-1.0457539736729928
-0.10843008181598406
0.11162946569532853
-0.10197573759633975
-0.3860086304493664
-0.0844214004024369
0.8143079353069792
-0.11943757683218337
-0.6055766057603338
-0.9344214065363309
0.3834332640466914
0.9340437053877353
0.7711455350991937
-0.07990833229313693
0.23340296564383342
-0.5035515207030615
0.3739103889900306
-0.04832535182839141
0.24585607411350133
-0.8547585844747185
-0.11413450754499446
-0.4478625498570055
-1.380509205827186
-0.33870050553103337
-1.405223258873283
0.6538244212981077
-0.5834694538659335
-0.34931679444417935
0.4174381390623313
-0.18752401173090918
-0.5512069835768529
0.6939894662139925
-0.6709555272636435
0.2873306774270496
0.07433626432704017
-0.14229958101972473
0.2611977623802766
0.8812714903473559
0.2709420470190452
-0.6538703888661144
-0.4360413332142554
-0.5848217021625064
0.2049888257483221
0.5161411838032882
-0.3141727079216269
0.6048671096050424
-0.42055521047038164
-1.2268401441844614
-1.1277795816375031
-1.2978429084588237
0.9486231960057667
-0.8884717125049225
-0.692045626315901
-0.7699801825862411
-1.2564707676255742
0.13617905404440178
0.39566271537363
0.031509198828095775
0.7180951542744558
1.109098207210534
0.9157104844412387
-0.3996875036524388
-0.7634616472250444
-0.29407316269034356
0.31447526510352786
0.7618005101049901
0.07798323604053882
0.2382344947287748
-0.47600151838937055
1.1578629988603295
0.38230016434682434
0.829590965510144
-0.11715867781850384
-0.22462014154236043
-0.3034599041264147
-0.46992348428412456
-0.6479449066528945
-0.9140089736885153
-1.6909609859082704
-0.7499753890075854
0.2644727821622434
-0.1627644648010843
-0.19115158508298458
-0.6334388698315137
0.5063991787401495
0.7415420227875962
-0.28416522221711144
1.3425081743220177
0.43300247374741296
-0.10898385216194344
0.33710027460252945
0.2767364261760834
0.8632023805382008
-0.9135654801546248
-0.20405134504515207
-0.27297275227609824
0.5080975947740701
0.5331164304011243
0.8233163473967691
0.25581978954046003
1.475805924365884
0.6389998134385148
0.5038094098044508
-0.8211077709641036
-1.1898128301589888
-0.6780669689286425
0.544521452977964
0.0815669511663813
-0.0611038158554527
-0.12951456226607075
-0.14651213757547774
-0.2799448767212636
0.36089091022043795
-0.4748528315548938
0.7941767580169531
0.21255573620354637
-0.3083254158636113
-0.5178231705498033
0.7301278036323553
0.9791330492992274
-0.3746107952586839
0.18330267707234515
0.10248579579998332
-0.37191700721010507
0.023864812838157407
0.7890602006669309
0.9813185012005061
1.2923603074452805
0.3004517593436753
0.3377716116473042
1.1615463183590704
1.2769084954835568
-0.36438831917786574
-0.3232839428420149
-0.08880601863196272
-1.1026948096142433
0.4020165844080618
-0.5610742135752603
-0.28481054758705643
0.744893682563049
-0.41007693100157133
-0.3505126809845969
0.7812890308963839
1.0616442926584988
0.10045639951762059
-0.16289322369127723
0.6767978714307359
0.00659958826808249
-0.20000444639639703
0.9656092315642688
-0.574233135890446
-0.24308907819632303
0.7936341836381037
0.8534935706102893
0.7559114729613812
-0.20504141562900502
1.778726519979639
1.2037273813704215
0.7985691877119252
1.8704973624495667
2.4129618172471248
0.5773827649983949
0.6085521626494482
0.6130477307479771
-0.029783761501514124
-0.31908893138899913
-0.5412589244844146
-0.5827311554489886
0.024070961547670817
0.6534026482433449
0.05005348504706849
-0.12846187160368944
-0.5195606452505246
-0.6953811985900041
0.023016289173147436
0.2683209819414649
0.347955561717209
-0.40419045722924607
-0.7016439101112236
0.7771351821539967
0.3675270025050109
0.8852947098653078
0.6326868836960907
0.9942048765670927
0.6989777602843912
1.7168617860273376
0.8013806027825197
1.0921130119769369
0.46780935173686217
-0.12613650630177428
0.48776484830619943
0.5622437127678012
0.1983847217166901
0.2466849526394669
-0.64421587501279
0.2556995793206642
1.1496847374031833
0.37680832690620697
-0.8265650863980237
0.24843833702579288
-0.2249554682113509
-0.9685410815338967
-0.724245119093293
-0.4312599447842127
-0.9669300668908003
-0.33952284029005586
0.6454105084909574
-0.6307365857931336
0.18645271484830295
0.4427877004742649
0.39214470484930297
-0.09122017455741871
1.2629909062422189
1.9313760836984604
1.1044500816011569
0.31484803301199416
1.9356605115975791
0.4394124106142394
1.5058496935696866
0.7542390248383062
0.9907464566065631
1.8237765582223036
1.3986313051548191
0.9039762679951503
0.5883493476109832
-0.10605407040891408
0.11426409216153667
0.09164097485193476
-0.20338100535972975
-0.618174723177237
-0.25929411595497753
-0.24951985918523834
-0.7796625171485414
-0.2930044814651609
-0.4023401913741602
0.31172568333210715
0.3375293063412077
0.16652104806164547
0.7587416866774006
-0.6887473370685673
0.2734906007542713
0.7841334086130405
0.8503184477076994
0.3062646227259676
1.4287630451119917
0.6314869255661955
0.4438368490417084
1.1931594663666414
1.4095907668554104
0.11160480932670262
0.48980241118766815
-0.046998635751552484
-0.7694052040036495
0.6406426183699082
-0.7086378791178649
0.2791013890591044
0.20664912886402598
-0.6883212185035787
-0.5744656406695259
0.5393192162939473
0.6871456339070354
-0.24559335604403754
0.6420262503044143
-0.8905355589035293
-0.8875554930313594
-0.20453005281632317
-0.23422394166662497
-0.5944682677850448
-0.34190718948522636
-0.0362506862286522
0.20381568778128697
-0.980643821503927
0.5683096269206777
-0.13904415761464806
-0.43450654884740836
0.013436839788246615
0.5860907806074581
-0.8177060119219651
-0.181866408888249
-0.2879224190136522
0.5577830962413572
-0.009643177687819155
0.30723611041480614
0.7221067878045793
0.3075160973675459
0.22351551550331106
0.30944712951676423
-0.07645349290630898
0.18833775409871611
0.8693943789724623
0.7131930096101298
-0.09672867883920633
-0.6186772585433242
0.32716599979024186
0.0015914532060896658
0.09629028802187323
0.36794960784151365
0.18694917380847875
-0.08157332813081664
-0.8470136307456366
0.24124802000193135
0.44959490834462285
-0.2617818950551884
0.3739847176406663
0.9338479641281514
0.7827300631030023
0.5232898163823929
0.3170972085892856
0.7804846444962503
0.29203904004076686
0.192472414619975
-0.5774351695643241
0.15605681958433903
0.9068108508490509
-0.5605248134262646
0.4983840502720238
0.6640783042335103
0.9002375871973121
0.13924533296005137
0.4549313850922285
0.6505903193679041
0.8816043693561892
-0.8107472504609697
0.9368344252789278
-0.5858813388625432
-0.9702573205243722
-1.0092825456636272
-0.31448312919625393
-0.5459916011368706
-0.3274842558829851
-0.2644719413934236
-0.6475032098049615
-0.6437870160072915
0.337366049568298
-0.8463417548165476
-0.7933215530407267
0.5423378625376352
0.34003342491004634
0.6572032153587977
-0.4685534926158173
0.6153420378083609
-0.4722276325182113
-0.32761205058793164
-0.6275887511926428
0.087980991657026
0.2868113858558554
0.03495679144998065
-0.31298370829923394
-0.6157143055299154
0.5881782948507144
0.6445540777099359
-0.8504384153695298
-0.38269666545032577
0.5694603106654054
0.004133833266972304
-1.0839406195610062
-0.9542061884775563
0.3917705095542208
-0.05034093652435463
0.6618240993107378
0.3072385203194575
-0.21525976240822134
4.335643354417294e-05
0.4639479909076077
-0.3678449078176167
-0.5633734600133364
-0.17663920092886243
-0.3411578019014614
-0.7130368069358528
0.17629671650692091
-0.32489965228834494
0.8826126460076043
-0.9717918531790952
-0.3101936526471114
0.8526539844225526
0.568221563158468
-0.14434569132946184
-0.13217550608628603
0.6397691942225207
0.09535306086330934
-0.6737458453719972
-0.6675109792361142
-0.8760624249853004
-1.2036880102307956
0.2853184260355303
0.7902052769769503
-0.6139143495955317
-0.7667218938438926
0.755532164356653
-0.7806179960657823
0.8020847210147767
-0.7656981786521938
0.7923702363310576
-0.9148408030431964
-0.09046824943786543
0.04435367857265418
-0.0549769275461129
0.6318524607488185
-0.7842777619454233
-0.9696445661170221
0.5836796350771845
0.7826094184466399
-0.5961444502297821
-0.7686910955193875
-0.6042586161207482
-0.3895646592713468
0.8801554839887751
0.8328505325210642
-0.024081814263013947
-0.09333750624155697
0.8291402238018911
1.2280416322758478
-0.1518544515913413
0.5593296111348725
-0.25217550525453103
0.30599131919274164
0.5303067703190066
0.7447783986502499
-0.6242158656771892
0.24649769201942004
-0.7124965838748158
0.24167612267835212
-0.658629763590583
0.24540291944130496
0.5273936820159016
-0.6111650095037107
0.5386739954117535
-0.18744670601086155
0.9013676644989868
0.49946621418999126
0.1315445395743533
-0.2386266206985113
0.5267320741424452
-0.3736710679174303
1.0028502946809934
0.8194912652253568
-0.49696251284550275
0.37625210785984897
-0.23884016052190413
0.39959969833416825
-0.11819126351162933
-0.35958334865645425
0.7352719883667053
0.11775045197000016
-0.4837320430824157
0.23185656536693033
0.10806564068437444
-0.5584495396817749
-0.4514769277989173
-0.5962997444937833
-0.22533824922163517
-0.11799124166291759
0.5215955333839253
-0.6355373463823002
-0.3797700650164072
-0.03033344109483438
-0.06986881852468407
-0.01436470444407556
0.6854864664600633
-0.7796761991095534
0.7048992068037014
0.8440955782101319
1.235945159208893
-0.4353047259437605
0.5089671823034972
1.2681485235389944
1.0301282384011965
1.0862751013376444
0.2855638625869745
0.45378613375431726
-0.13601510386220195
0.12201905843662596
0.21694001124283957
-0.40194156453163116
0.25991770095963906
-0.28535138930536313
0.2260215361641062
-0.0129554661720906
0.6971052868767998
0.40876995448232667
1.1348108656514342
0.16556228896402425
0.13575540497955788
0.9285194365424629
0.46362210169573714
-0.21194922917850603
0.3677651789487363
0.7551922383076534
0.5157877286990784
0.41649556650589853
0.6698525571490632
0.7316176291506014
-0.437064668976429
-0.46458920752435773
0.007699379750549431
0.8239599851085374
0.8607722515556173
-0.34506664344889615
0.44878223599979705
-0.6503571733642949
-0.7776219810277081
0.27107173474756013
0.4392606585490388
0.24442870584044823
-0.12673265875623088
0.7579492780538044
0.5885140334488714
0.578266067899864
1.023552184347945
0.8900620133355527
0.987656573090326
0.7306427712356542
-0.8879494637383222
-0.34666279281203594
0.7799739736135941
-0.05423869930730695
1.249762110403329
0.49527655640618
-0.0685201038451144
0.8811244410761623
0.5838797589839103
0.9663174669151211
-0.490113483621914
0.5934400500178372
1.0865269923746417
-0.40775185847398776
-0.187081822807411
-0.268287320932776
-0.29735403715369374
-0.0585730474876738
-0.12723424895806823
-0.4772802705657224
1.139119957572633
0.6102110403186909
0.39111406397971155
-0.0409408853524631
0.9947950446145081
-0.1428744899424177
-0.8312327400990317
0.7221986361180563
-0.6349729597478615
0.8323098287406051
-0.7364590136856249
-0.5348864968093402
-0.4864574446068304
-0.0034962220731778156
0.13965054990382833
0.561222243817052
-0.549501335404309
0.7865778639351663
0.8807266086424858
0.32559245508027324
0.4883840864205283
-0.5106156893618103
0.25962013737218015
0.8245282124262298
0.2907308350232809
0.7485396743901743
0.5975339946496101
-0.09372427204139548
-0.09549766014272827
0.13063770593469604
-0.3613944857619138
0.13827719061906135
0.6216237654507055
1.1505910454820207
-0.8306297169900692
-0.10049641825294642
-0.4997534141843979
-0.33767922155491836
0.37747901000269957
1.1407507415555482
-0.38888366158950144
-0.4127136432984888
0.4209330420292041
0.26109774743560704
0.22940902501969965
-0.33101184748632495
0.545287322331176
0.4615768428959312
-0.3229899970263171
-1.169088900302929
0.8092648404490977
-0.19952188967327017
0.7938283080058014
1.3521500537902824
-0.8062057927134515
0.4763759717542103
-0.1338952680282713
-0.4094104088766258
-0.6320695077581945
-0.6301546916235579
0.7272585183592576
-0.2788302334109801
-0.21773182726955412
0.931265365268698
0.03325270231109112
-0.3934937740301513
0.16432758340968587
0.22741888424489787
0.5496451278129079
0.9066276269156887
0.4318362616170047
-0.8726294750042306
-0.34424529861045683
1.3583188306229683
0.35430978902804894
-0.8276937060798097
0.43267607922668133
-0.4840500802058955
0.6239645690838789
1.882765944497873
0.9407841272159487
1.3111305356035
0.5784663157224729
-0.44424400045236534
-1.7299633068510079
-0.926614389088325
-0.9768639713556554
-1.0618721328491723
-0.21982248585581415
-0.9549555342587457
-0.7105383086655294
0.6324694121168157
-0.042981739624591835
0.6740840181662255
-0.07405463844775537
0.8024653332656132
-0.056390062060958916
0.8420131803863551
0.2676338099000709
0.562454431783397
-0.6825556819679768
-0.08149505702599846
0.14162004228003156
-1.2143158381028487
0.4200121165102017
-0.03559077601244924
0.23946203437467029
0.9001796621934394
0.25721802004028316
-0.05430501130968244
0.2998658417629808
-0.3864999155460186
0.6094258584766
0.08470031091903756
-1.0530386271193248
-1.145492495417051
-1.4632941998240827
0.26476875317996185
-0.049825216465518074
0.41040239367085346
-0.33503458920753393
-0.012824323640937722
-0.8204788403591807
-0.4050072873685018
0.1679114947019268
0.7619611991448563
-0.8130070547914435
0.04718566097944754
-0.37080476507632537
-0.2892525809449576
-0.07120087393251862
0.3861418967145767
0.13174984366464076
0.04321860446920592
0.7954942324304347
0.7963181600471075
1.3253898756911557
0.6115334991054956
1.506094004809169
-0.22894400916033178
0.6660588561674126
-1.0095138596685502
-2.104694574213884
-0.8022026879146856
-1.3487965033426599
-0.813582883936735
0.1752813189946391
-0.9103609997708719
0.13863713565846814
-0.9984917234665995
0.5408636567770067
0.9360644233927691
-0.6938099213304992
-0.9432690265112917
-0.4223406012783776
-0.9968349749477694
-0.385010495213974
-0.44816936776807065
-0.46113825439221723
-0.6889493051032425
-0.00010802734846563581
1.1376232007994556
1.26994322420593
-0.3617944544537914
1.143013140240639
1.026912262386012
0.7135196073568145
0.7444697256898026
-0.9783374423488509
-0.5286317623946004
-0.9519120750377018
-0.97865308509306
-0.09671081920740142
-0.42169942923611603
0.23285217051605206
0.6379610175446331
0.6361658380244368
0.22053983024954846
-0.27595972102080507
0.9781465309817814
-0.34480653695078994
-0.8159024227709453
0.4609330931836333
-0.37113834423523523
-0.47706832258962856
-0.3536122605342827
-1.5403025347882597
0.06380654398266478
1.3345910819045825
1.6582649518744061
0.24923195848922394
1.1749909239419567
0.837067146921649
1.3604838370612313
1.0457148918002876
-0.32830164101829407
0.02459106841798061
-1.2893267779399027
-0.08569745860461774
-1.6559506847996177
-0.23248286155730363
0.6947488607450717
0.6972404895487531
0.8036730919153148
0.18549899459480024
0.10306662859279725
-0.430693670905497
-0.5542735476333674
0.39241172773363064
-0.392218383660676
-0.9762601844179251
-0.7016450725231964
-0.6409260449028867
-1.1121964012876098
-0.08653901573433319
0.298578584743399
1.668289311925473
0.8341732612540335
0.8188991244947263
1.706898543458225
1.3771643126748505
1.5413481589388187
-0.5117710113778667
-0.1771874051146903
-0.5609697559387055
-0.053556355868319416
0.01037123133799371
-0.8559327014213595
-0.6921150882570809
0.6622070872775837
0.9927379557635676
0.12192325817491699
-0.5757242029601108
0.46017180570980243
-0.6373544446624118
1.0792025669404268
-0.09751902034558182
0.07180723504007623
0.6059621415512043
-1.1044537040013145
-0.7700620170696982
-1.1359151663657172
-0.31076437630606335
-0.08637587152173479
0.8894501394443008
1.2636189647730578
0.8745793204497181
0.6771006468756579
1.2190801913682063
0.5456827344466579
-0.21893510134189997
0.5328441097877945
-0.5686901462855078
-0.41105045411970514
-0.32578723958208483
-0.11189297706074512
0.45413558069154303
-0.6628817076420921
0.6976996306078441
-0.7869265133322574
-0.31169182590436506
0.005606717299118647
0.7616220994876624
0.9821949080885171
-0.6636716033378486
0.4231376658233792
-0.5489736019718501
-0.8066211519212094
-0.9028467302183351
-1.0261394171227722
-1.4808897920005097
-0.31293466297944483
1.0450975475037143
0.13362453358398602
1.0673406429780123
1.2766130751318174
1.161219647909498
-0.9277818633569642
-0.7068668987355136
-0.7081627999153932
-0.46268166552898804
0.6692702567432193
-0.9103285484317869
-0.9031646181493479
0.7521949821651924
0.20311626054213447
-0.33755252795949214
-0.6424804709520782
-0.08014384058160884
-0.7102332400347352
-0.8701444016714275
0.6810873955823186
-0.11577099389744601
-0.8622378463407169
0.6446952503748099
0.437813337960108
-0.4521859027437859
-0.9654243890147698
-1.7948726808599342
-1.1784972001254996
0.12109950253208934
-0.42417526230716146
0.3495130668046281
-0.7684499224172275
-0.930561363440357
-0.6688088675671622
-0.9144907215297768
-0.336456201084652
-0.9435900084880358
-0.9039218128336824
0.7272245974698616
-0.3086715688250645
0.5668643795825828
0.7559407409038795
0.33195680613358036
0.9873818314029025
-0.9269876908315131
-0.24978277528712656
0.6555895356847826
0.4947047406087047
0.7348950402333252
0.47831597063941095
-0.5013505253265643
0.48919500371789715
-0.5553499822406627
0.5929830430345255
-0.3657086727735114
-0.5026585639826312
-0.40821672048753666
-0.38086658945247187
-0.686833130510331
-0.12029435026318311
0.2180228601807654
0.24995040818833142
0.048195185558970476
-0.4439840549712149
0.12490816372811653
-0.8607623055277281
0.7755086487418206
1.1117778738903776
1.042664581769259
-0.5162827737943217
-0.35949572217622094
-0.794266997867136
-0.491556668893679
0.39412106017814635
-0.09068942501319151
0.9340892828380657
0.8874806979186691
-0.21426047768120451
-0.5178821088962657
0.26240104421651783
-0.022930162561483565
-0.13846224070036078
-0.9541536540203925
-0.20127156036125837
-0.3488763082315894
0.03730553171606948
-1.394439548233714
-0.882217033056706
-1.0283909593343763
0.4237436909094591
0.5763943883450938
0.24544605652513435
0.9748064134843594
0.40892819650838524
0.880105702286784
0.38881720550192733
0.11005540256031786
-0.8852639928762429
0.22674957142576735
-0.07666955323864166
0.5251256423106994
-0.14758045883684767
-0.2536671758535353
0.2734978629109793
-0.6772786238551598
0.6139448582203533
-0.41692060875731085
-0.18269365169358953
0.15524657034204375
0.310762391900225
-0.5041950092927597
-0.21170661158629228
-0.3703558207760185
0.003654120374736246
0.1864028632918648
-0.7906655067968206
-0.500477680005387
0.06107668014387339
0.9429378678709455
1.0177191445502614
0.5948242320312537
-0.24578567381319544
-0.3910757586332883
-0.47071703304058204
1.0665544617465823
-0.04366740738720367
0.5238282453219459
-0.06914831736968474
0.3243530925557514
0.4724846402116287
0.4620650672892551
0.18810452622175036
-0.9232772947512179
0.5119912024234499
-0.12492620301787147
-0.8867879022997776
-0.9261850547314093
-0.07476626924163939
-0.8199257743238929
0.41133354003858796
-0.06493530217684725
0.03556843352925804
0.425361600431
0.4714831899219048
-0.7171101265222384
-0.36160891363597375
0.09511824901358731
0.5321829046773808
0.9994843656183792
0.11381059601406686
0.12209741371148791
-0.6858331749094411
-0.5693439816489541
0.11040147460461976
0.28848740744301576
0.98374356522432
0.9442759962296088
0.30200393926582336
-0.4504780318942662
0.5454519259618754
0.2760920906154703
0.23838842096914217
0.6119202301573079
0.7100811125834082
0.7402914891517997
-0.6525875020171761
0.2571406210829344
0.508021379102224
0.2597941473551956
-0.30265907277205256
-0.4118842485731032
0.618988888618908
0.5454232625670193
0.5255879636331141
0.9143269158032011
-0.4339753358482122
-0.5266933594137484
0.6869368525766489
0.30924817117508424
0.07023795860593318
0.9697965702360049
0.9136439900514799
0.39410966318675533
-0.7980537808477646
0.760740873676542
0.3802792214627744
0.34938834403081787
-0.5064816842083436
0.23964344933065318
-0.0020399331940778097
-0.07521135893890661
-0.28529584172121336
0.5077803550608737
-0.030847851377086156
0.5935702467508855
-0.6758566383895752
0.7038466665087434
-0.09597427078785159
0.07506915183396624
0.580684242728885
1.1670619571681569
0.34361128383810846
-0.55390480693976
0.04229047626977502
-0.1188997891951889
1.0107589641544066
0.09156316531103828
0.08430465080399971
-0.7963752369362128
-0.5050610552741538
-0.546062111064402
0.00022436955600668718
0.6650783615261302
0.4066976769228079
0.6028742033685148
-0.036258477861249805
-0.8216862049465328
-0.021759921770489306
-0.8655709413256277
-0.8849813145304227
-0.010683763835959455
-0.5249116655917262
0.3345663346563619
-0.3319185235077906
-0.5921854855327425
-0.1314165074666102
0.44116697372708236
0.9166282735394115
0.9208098963749279
1.0121967496059168
-0.05839205342997928
0.05639044422350683
0.19448203277938966
0.7250003461844006
0.6307744948548576
0.6193495354477918
-0.18281633154504218
0.6805024447558821
0.23944618265710105
0.5914455658911824
0.8104349385139584
0.6211257366306882
0.22089141555034986
-0.976098009641337
0.4978706039349843
0.7352016259972177
-0.4096851057220839
0.9198346541017429
0.15087759068376194
-0.8234325099315096
-0.1780571481997394
0.5860971871902021
0.9510070980106192
0.9359767933886226
0.9532257755221879
-0.7466852503279824
-0.7905556485422409
-0.6576925300241786
-0.14693263117213096
-0.6100852249804486
-0.677101848949803
-0.04049353485799445
-0.7299340376585852
0.3275112261556452
-0.18463209996809082
0.6063750036668609
-0.7306265937444625
0.13979624601598828
0.19536504468574867
0.006904975879102659
0.37043968313967546
-0.9735749828878202
-0.7970938969580821
-0.5197891847421463
-0.2637679941233706
-0.5816607133785736
-0.8659951708705353
-0.9260829290321955
0.9126234481694055
0.8295446980776331
-0.8579097265078295
0.7801483727956761
-0.6074258080158691
-0.27162908518767503
0.8655913773859218
0.5486483317812703
-0.36443478701245446
-0.4174372756032687
-0.7353772491361728
0.9835223248974849
-0.477414229680988
-0.3950968471941434
0.060906162805616226
-0.7072712482804866
0.32682169972607134
-0.3001388093930031
-0.4146197502970417
0.9786902858532738
0.2131904748087552
0.5663888000562105
-0.7603318603865454
0.12683215046144092
-0.9529629170715832
-0.5116570127632584
-0.01882658877539197
0.8077068665187831
-0.6211513333914777
0.6755741657561716
-0.7946673408235406
0.5948995498758116
0.968995349751574
-0.8212061576211739
0.9861033680480922
-0.6272881171198353
-0.5707826674190456
0.31493638075488234
0.39704952369056074
0.7087855238622087
-0.6397516920514064
-0.059532945019608624
-0.8655475841414741
-0.005443077540716157
0.6831860801583227
-0.4590534334478993
-0.0647906810866743
-0.06429762819472673
0.8850257591568977
0.19225684002742827
0.21380553201541355
0.5814935238034518
0.47865567443291024
-0.8640501871655635
-0.4360925671251999
0.3682202346084714
-0.22256289205770372
-0.06826312731732626
0.5432441818864455
-0.6879315124083963
-0.9476497237681002
-0.7039088891443809
-0.47631229142057463
-0.1357977942965866
-0.6774042821170831
0.2605036834180536
0.687137042805396
0.6510633851634126
0.17442651332412978
0.6868663301984063
0.6421273521563079
0.5486149812418182
0.26706780626615445
-0.7685679622025436
-0.5573912574419018
-0.1935068420711601
0.46372476166305593
-0.607210638508709
-0.47281161825611817
0.5944040829194269
0.9590594735407827
-0.09384082698630138
-0.2932413465511042
0.8302958497529938
-0.386753071749679
-0.17297734872000223
1.280692510933377
0.7262897884316768
0.8960099311151275
0.3625610056433845
0.8745431978991347
-0.5781929169354849
-0.05933221615196781
1.0496209655897275
-0.6593607999467946
0.940936258140808
-0.8897305320394104
-0.04318181709028367
-0.22530154007196168
0.04834259263637837
0.1007735669873242
0.9804166478100729
0.3220560311464078
0.15277424393697014
0.2349089472571475
-0.493689693032062
0.6655585590987615
0.823291326748183
-0.2748382151181651
0.572885102913971
-0.8106049600836801
0.509547130565504
0.04011437580884556
0.03779370574512988
-0.48764241831479627
-0.27954856875777384
-0.5272347889500967
0.11161270683499067
0.030819086313631703
0.8217888650344323
0.328484894263573
0.42621323107875625
-0.1891387238239456
-0.13583008774071612
-0.06341469968945741
-0.031933895418404336
-0.6701164060629395
0.6255318802883105
0.19982941066371865
0.9116038825087855
0.6234307857642041
0.08964204035038392
-0.6021629743160488
-0.08838734348628279
-0.18570573416089212
-0.27404870008977295
-0.45149056389717446
1.267939125553919
0.9359988439557483
0.35828781341372506
0.14108667750975937
0.23941493842635347
-0.928118234165255
0.10068274415384648
-0.9729382433018832
-0.2638278791030509
0.36378247224298665
0.9454436364762544
-0.5623682945902228
0.19342792803564746
0.7294522959364961
-0.6938368827434256
0.348675389605009
0.8249943102115485
-0.8774550935312815
0.8915756038252823
0.4514744210844576
0.260236465157474
-0.3038704260526277
0.011956374571844064
0.46673098391994805
-0.7303907938913202
-0.27843241938718477
0.7924925720544641
-0.46729488184455376
0.19020923496147263
0.7001622809807588
0.8442668048828288
0.19071016839656724
0.20325094324306195
-0.30450886656170384
0.5777149260698884
-0.43546674383614725
-0.33814705042942894
-0.0915328844980991
0.7924258097338999
-0.28738666853542383
0.25760477241706353
-0.013160976693797427
0.27292879231702183
-0.10188456198765557
-0.2342213822749774
-0.4706511935627873
0.20701355580661115
0.7718348545097399
-0.8581628452034982
-0.8719539474164588
0.7095893827700674
-0.41398842846104705
-0.09080382212518906
0.3199581202105944
-0.30035976983171225
-0.11839394117326149
1.0979494402103305
0.8391292609824432
1.1386850772809853
0.16528315288588336
-0.5325798086748345
-0.526784695118555
0.11943991433189431
0.642142648208338
0.37023117709788794
0.7914450740243222
0.8952686276543173
0.9464617163310196
0.7104879206128529
0.06532254186947394
-0.373976054510595
0.29120725474907433
0.023457884502788812
0.8546627962804766
0.5518689251283867
-0.4932190508780962
0.8115692744133587
-0.1969783325818782
0.2060876526135043
0.6753520449026684
0.9154909019168618
-0.11771618030213293
0.3753351111047308
-0.08926923236105117
-0.3082626503739568
0.09187726622923145
0.20278511036482158
-0.19055804141468924
-0.16358082968359242
0.03643101581940235
-0.56069380084126
-0.20152998841592507
1.2598474229461458
-0.11250899708882052
1.003739937621184
-0.5838989892647426
0.29693997512721987
-0.14867640853045475
-0.473127178034906
0.6468691764927978
-0.5796544956172719
1.027873379664883
0.37941580398299823
0.5511924882768517
0.29680331282653016
0.7764172193462902
-0.2112953393915517
0.618734420631434
-0.532617982812027
0.8614454313992591
-0.523653055153994
0.3314483121322583
-0.21289339159224438
-1.082559244881115
0.6661187174644323
0.24528982786279793
0.3037889329776711
-0.6203477846477788
-0.24064122442240138
-0.2828103216222913
-0.46235813891457744
0.8704164926321363
0.27238143492576283
0.15877650985524713
0.2786081750415503
0.5509035843231709
0.4861838994156416
0.6463060401773957
-0.5957305899341813
-0.5542868091789018
-0.3349337054969415
-0.6267374809147943
0.7628788359306244
0.3016252891135954
-0.7747823925802653
0.9177713927995864
-0.8453411654204972
0.6716588406968161
-0.04019146815123691
0.5894583562241935
-1.2621293817149437
-1.062720130900327
-0.5442007615528296
-0.46663554590457046
-1.1252213722413695
-1.1346544465598876
0.17392616557894128
0.049043610442327266
0.7634711435905137
-0.07963824565276127
0.13099866219523326
-0.5572653850248103
-1.139886487958729
-0.2606178268878605
-1.4463304217544957
-1.1182260857958877
-0.7514355550511368
-0.7193394617220575
-0.41065603497937314
-0.3710596158259453
0.966597670826607
-0.023576109836800824
0.8092815960860408
0.2614508605701992
0.9080662864176446
-0.5467777969395415
-0.6745626327921225
-0.1292910329214758
-0.2862931220422741
-0.8005398240811339
-0.2235926726831088
-1.3657834214360747
-1.3897409390994346
0.6049542617515702
-0.38226014319715895
-1.2453631733407662
-0.06677662223582466
-0.46858975604567144
-0.5108041514731683
-1.1794764406616767
-0.5753454647450212
-1.8568254172169478
-1.6283793667211302
-1.335600215841381
-0.9651346580968142
-0.587747176009089
-1.100588673760205
0.5257292709296283
0.9562374622671993
0.8658039608427491
0.4705386232854527
-0.17160830559693754
-1.0346441518480192
-0.19138931053406333
0.5932517841919458
-0.6047419194147489
-1.0283623285675714
-0.61957216031856
-1.031868866158287
0.2354967391394785
0.34763063778802816
0.021369808801445633
-0.2686879287683813
-1.4867511000799591
-0.32139585939312726
-0.6909795376869508
-0.056891958159712507
-0.982729171973041
-1.360190188863221
-0.7639615649990837
-0.5960661682738306
-0.5903432172981798
-0.2979122577762421
0.2679178242396388
-1.0510451529779612
0.22469198690347253
0.28246775433033383
0.07745344154660883
0.5677709994912165
0.6453815105771893
-0.5283448838602145
-0.12074110610694103
-0.9877721693321205
-0.6454186324347554
-0.6750271176461333
-0.0036547558592865213
-0.7426755958640429
-0.01398622641830696
0.26162092467919956
0.15569845613910605
-0.5964991344517295
-0.6853521990332974
0.029714415130636454
0.27604600311714417
-1.3034543760821269
-1.060566114337223
-0.4762658968505565
-0.3961720875084193
-1.008912328253061
-0.07880868646991268
-0.45829846804707053
0.6197982031576623
-0.46128283178200236
0.22704203036423912
0.8392931326260734
-0.5953808960834885
-0.14518285663878952
-0.4534622734940866
-0.23663113975826292
0.8555699974323967
-1.1486873010898397
-0.038808788278511926
0.5408843826749997
0.844547984809097
1.1718359002885015
-0.20187777520562114
0.6389221422333321
0.08370471927456563
-0.5709331764508259
-0.7072590758590671
-0.8384951559736552
0.041642443803682816
-0.2707516145275472
-0.027324031553899234
0.4424228654895115
0.5971702206976143
0.30990024925705184
-0.008304424645407333
0.4954669746194824
0.9731373978378345
-0.6687688808825677
-0.8942234027977163
0.5858134210119113
-0.5707573034270574
0.25238310430293576
0.2817085644701762
-0.5127265280274692
-0.28284561087777327
0.6662146365408586
0.3875428041059938
0.6051559641068572
0.307188358075811
0.7610317821057979
1.3600196741240347
0.15916714943358062
-0.18932413297294182
-1.6593025224971953
-1.2575167191241758
-0.3631693339052208
-0.9004711492577636
-0.016485087339378438
0.7881278314099616
-0.1529390968694392
-0.1257966265507308
0.6030703650618058
1.3889197351123022
0.473059250562911
-0.08484683814859743
-0.7241779102443808
-0.5484560855011182
-0.10659832916301686
-0.34728198491342366
-0.41838689991558753
-0.8228920048346824
-0.7997092509648558
-0.16170054401680597
0.36684312412807074
1.0123010706142204
0.984607330651564
-0.36242727519579454
-0.2445638819553502
-0.7086903468787215
0.457465378722762
0.14575743253661486
-0.984160931458374
0.1700413561580221
-0.5829064486618956
0.6995125358695956
0.07825150658833382
0.3496127104183795
1.3900295427753673
-0.16766534721878196
0.8354340330815545
1.5045586693240853
1.0489439568803247
0.5222901599675029
0.020325167721279073
0.7375630236143224
-0.39399421536232165
0.641229456740579
0.5316513848728524
0.0986896291314944
-0.03959080503562751
-0.6840005225160494
0.06826805148810033
0.6353503656496972
0.19112974041637057
0.179107377008747
-0.6028619185210525
-0.3700959769535821
-0.687540299971973
-0.6603312792488427
-0.4054602573517334
-1.1759201742054481
-0.055793087002905854
0.12336030177026468
0.3584390649230873
1.4444339130223487
1.0882233105501002
1.4023858372531397
1.461702252703217
0.10302839326072634
1.591664108824014
1.423806330186614
-0.07831829752176937
0.8231565754422748
-0.6277322480375651
-0.7486200900435607
0.4745704812990892
0.1969192180486915
0.7195771774343975
-0.07651380936623144
1.2235442435041994
1.7304469533040667
0.04791581233385162
-0.2629967570893559
-1.1970429745067845
-0.27298777817467484
-1.1031566060334574
-1.1511662450918423
-0.9263742877071675
0.46337067579872976
0.22262686286951633
1.3295103282071505
1.4181021365540971
1.8154020974044782
1.7285900275720136
1.4286810512325554
0.223858348033433
1.7999698144941116
0.028727991770472232
0.6863655025736773
0.32606997415756545
-0.20940110573422402
-0.6720541232065405
-0.7248640012209473
-0.9738591102902889
0.599070545392779
0.059167209591935895
0.4985278932818708
1.0179807723551342
0.6113604977962155
1.2866459990234234
0.04899136282749581
-0.9763130189512486
-0.024631850481947434
0.5143126823933831
-0.19557933509058145
-0.6105730945701753
0.08375629606275746
0.07700719861420852
1.5097022816361023
1.4912102779761294
0.6357041343519292
0.2911530639765211
1.1160867640327912
0.8085406800212533
0.7575918665811124
-0.03713792094849038
-0.34128394761157704
0.034570961690915364
-0.39180407142154
0.8002457111519788
-0.978910302585515
-0.7493868939136044
0.623805541559841
0.8226120115395766
1.293814935682882
1.1851524377079257
1.157044818162814
0.6702402282449507
0.9942020356161642
-0.21929907928174838
-0.05583791826965637
0.9943953500957015
0.8480345621076157
0.6139933560167671
0.40175995371752954
0.7607722419514048
1.0327824349637875
0.8179712743930099
0.9335375342111961
1.4450574243144898
1.889466829645536
0.2624241353341263
0.9948060210902449
0.6604223451628941
-0.49529223109438364
0.5907662152968884
0.7310799866506638
0.7858964444951371
-0.737072964479115
0.2571298250966236
-0.4702480541135427
0.34740193514413026
0.017535712756114128
0.547415467035462
0.822451948666344
-0.25211458565524625
0.6937035326658288
0.7426777195424481
0.8929392110822046
0.35532780565813676
-0.27978394767431763
-0.2975906586447072
0.9068072791512022
1.215020348624902
1.0095280187159479
1.3225313238340628
0.04836584913254328
1.1051756257513132
0.07755729647840032
0.13254647287062948
-0.18203992421293397
-0.14773400984266935
0.9500668341696425
-0.04701774100179641
-0.7008335552352186
0.6701544236309078
-0.8556584577693727
-0.02412854157420341
0.9952325708812859
-0.7700409310236658
0.7126110602937311
0.5524696645123337
1.0330568815496923
-0.00823037023723912
0.5641873423644328
-0.06504799885236118
-0.48095170572162366
-0.02367501862359476
-0.4991035900034429
-0.30835898620821645
-0.7193990934568381
-0.5413457993956245
0.11015273562280115
0.09692731329942324
-0.41791349213449036
-0.8400973758355776
1.2972105321380194
0.3163983206567613
0.9011833585200498
1.1365883371717964
-0.6391608176858029
0.7703760124776792
-0.08538279382793407
-0.26249822207449025
-0.9515797109302573
-0.04921389794818776
0.3637929819843019
0.33030959586821135
-0.7836643426090486
-0.1813781825479179
1.0771164889733988
0.17599735193138363
-0.24255011310729582
0.004333572046461193
0.161677018307398
0.5179792378030449
0.46045122593629423
-0.48340366071384355
-0.06357340439871062
-0.2202403775088248
0.22150004581090205
-0.5383707434180023
0.5643932205178376
-0.15053416740426237
0.29090997505232047
-0.026824076680260066
-0.7730708828444283
0.2206925018219793
-0.4617658974911702
0.2537959618681258
0.24627750328823172
-0.03974817702074929
-0.9719142514970338
-0.621730308652753
-0.8705358812165319
0.4133677255737631
0.2110650739009993
-0.09829801147527335
0.46724357751024787
-0.13838325635405008
0.9755321686756608
-0.4198351397213958
0.8231121715416956
0.6261354178951632
-0.3901430241320982
-0.104729089008324
0.6499480049423813
-0.24744655369665094
0.4720556514313642
-0.3515894732546481
-0.6243702112676066
-0.8725536212030575
-0.385068066898835
-0.8352609233533587
0.05979657659167872
0.5603734243203504
0.9142148800956873
-0.7343636983568161
0.28627782643381194
-0.30416939813833443
-0.9400587378173795
-0.8871101077168564
0.8070695382578388
0.07702713619801436
-0.0450395793734209
0.9837647362198981
-0.27240847338187796
0.22582279826613308
-0.4306991476666745
0.6023996936676239
-0.14356925416923413
-0.041451592707685087
0.9021483331694662
0.6499352630843002
-0.8968795119487433
-0.5921639816113226
-0.4317338077144792
-1.1548058452210712
0.4729966030391668
-1.171988222328726
0.22301886265444054
-1.1191138666117944
0.4028446416475155
0.8559296936071559
0.2525728735480734
-0.29789265229018125
-0.49757509695608926
-0.6559235217310291
-0.4960844216426956
-0.49616106481120537
0.6701934202285662
0.6288532361002013
0.5381025723915971
-0.03031569039903143
0.7970309524598886
-0.8932729205378063
-0.41022742554054326
-0.5715668553207698
-0.0011680378608662368
-0.22158426583394866
-1.0437651620506152
-0.5795880037416279
-1.124604490973433
0.39481019464196676
0.17697103704508982
-0.027854686681271862
-0.5055426488610639
0.1026588455966617
-0.7874358928025553
-0.379831754009979
-0.3652899193481489
0.9674869136879661
0.4939337794167862
0.3071012939039357
0.2322468805753819
0.5054172501799741
0.01224192354187803
0.7105648168695873
0.7971938459904135
0.679853197071232
0.2423435135640135
-0.20468954183093205
-0.6144760962755405
-0.6411103810066165
-0.7395188308185261
-0.618233226627473
0.9328064828521594
-0.8234009468282651
-0.5928673202025452
-1.0122508218982005
-0.20240139720766942
-0.7585304790938521
0.9223730346976698
-0.5903343809225853
-0.5614511994269895
0.5449229917417759
0.132832830696501
-0.4977272271297328
0.45621581730407085
-0.7902487585904185
-0.06415573550303533
0.568757190079628
0.8137847854198108
-0.5757411178152263
0.16081515324403917
0.23588569837428386
-0.3267883799072824
-0.12325168393843744
-0.8648089072297598
0.9793477089333176
-0.23386359715298832
-0.6425397361554164
-0.27788516750787484
0.15088439007427512
0.7290062524973286
0.6735974964789859
-0.43388375136154234
0.15069069724595355
0.40861234966638826
-0.699403665006467
-0.3769250252691476
0.0190971432141811
-0.31335901583182846
-0.7398309301320358
-0.46415401334653783
0.7832962695081214
0.49936515163132156
0.32862989341500226
0.8452966741376373
-0.6944748320686147
0.9505961682557316
0.931237605588576
-0.18873129093810914
0.5698291571651253
-0.10900206854632866
0.3422983246075757
0.4338985009926677
-0.7775860543130553
-0.6399500950530265
-0.9112569512688655
0.7816627303838115
-0.8399967271244867
-0.06579562288440884
-0.6534749578240231
0.034946087496459076
-0.5532961113764968
0.36187151634929815
-0.015830051013908646
0.81511625491541
0.651274699645221
-0.11801188416491079
-0.8452729716289943
0.6623414627664251
-0.9410672210116036
0.7390176990241784
-0.9491576240112484
-0.001127118149034434
-0.037241008133662934
0.7927444993668156
-0.6052512891717017
-0.4075272139322441
-0.13330813923921214
-0.9242914893360743
-0.9841205763745897
-0.36194291312977767
-0.9701316828583237
0.5180089641175378
0.7483101899932685
-0.8956708410401549
0.2831369860863083
0.5310612460130572
-0.540281367395605
-0.516662330813554
-0.3313848043019734
-0.2360599380464421
-0.1608636009510673
0.22469011181379547
-0.6759157426091347
0.6530501963345371
-0.16838893603607846
-0.5525935876851027
0.5537542922388395
0.3606927205906338
-0.04547539173339267
-0.6407742520277041
-0.9248393460416874
-0.4149778549927441
-0.010179208418130026
-0.4206989954684637
0.4024528860701766
-0.5520808758110299
-0.7849252049217119
-0.35416082740128263
0.6692813423537735
-0.7913421661416674
-0.3350771124913945
0.5297916628413563
-0.21851582621332663
0.7271334567740866
-0.6240232485251881
-0.7525855906921071
-0.6565290696361424
0.4181117409079282
0.23982587972610708
0.518062944286734
-0.9528414695087942
0.15086575801134036
-0.261501872115087
0.743172623766456
0.3174542816150841
0.9995039448832214
0.24406363221409436
-0.6935259088271282
-0.4279296155170132
-0.6985033689941162
-0.5650141954166588
-0.11579887432527225
0.38598536753325785
-0.8103724523115565
-0.38666957186692463
0.5927755646065807
-0.6374786960811145
-0.9287340930468864
-0.7967144741197583
-0.3375836116138658
-0.7283860622596631
0.10656542828887684
-1.0066492584537963
-1.539049486756142
-1.5329300508245576
0.3464365149018471
0.21483695930726995
-1.1128807952484585
-0.04302923591958586
-0.38872861718709883
0.07102865812906732
-0.4066104346727628
0.28185658741464553
0.864027363543205
0.31203851664823756
-0.657204403322598
0.44018070595250053
0.5427674246238354
-0.8799198127168799
0.7773352016161805
0.07463482866349658
-0.20551756333845916
-0.7446708840860458
0.3592677304168474
-0.2334500878380432
0.7913022144155474
0.3810833215647876
-0.8607373979067204
0.3371306589918801
-0.8750129971623519
-0.29841477620731716
-0.5059768071448177
-1.2038808837975037
-1.1046137385038088
-0.20910342304199814
0.0023193748316738313
0.3716300837195763
0.39889773265061146
-0.20161282323290497
0.41411481961503693
-0.07586091355726107
0.17163760285242943
-0.395546073270174
-0.35487915762012523
0.13668442879887682
0.40117645041220235
0.26585507619957394
-0.9037116718769269
0.04597593371275899
0.6377181377700107
0.8666218748363211
0.44237450254444194
-0.25818206969187546
-0.700745880208522
-1.0592022385055164
-0.11220606647719185
0.39350745863665315
-0.7664376126991329
-0.027685830839829256
-1.399532699877578
-1.5921156629367472
0.1521050024116091
-0.11859071810827931
-0.12969307977008884
0.3146596360775202
0.27915874701702154
-0.26051863927248775
0.8599066798505953
0.9495950520492765
0.056827045174052994
0.34548738897724324
-1.075904378444432
-0.18145483082399502
-0.8259866398871686
0.440963782733904
0.19964696834446283
-0.2910249207292674
0.6164502878821643
-0.6732217935210107
-0.39161243146266245
-0.22268462094685884
-0.47129441528376576
-0.5213167807090259
-1.0439976437324852
-0.8699077919224429
-0.5531867608580298
-0.03861194946748065
-0.7167959701077934
-1.1644647481956008
-0.9668508495010558
-0.1848644109966551
-1.394995827129709
-0.11160514045608243
0.36388788255140825
0.05872153594539634
-0.13536400690669997
0.715935359895806
0.6878668702852464
-0.1688981208273773
-0.42032167715803365
0.2751139803580286
-0.8722527213464947
-0.867139283638705
-0.5306980529932167
0.16693009783050808
-0.7400299284719157
-0.10516387913412407
0.8986093074625955
0.34742612883075136
0.46837752262019094
0.368107085639151
0.29552368146128166
-0.38103122653827065
-0.5052831039372457
-1.4429811585112926
-1.1075607039852586
-1.4770768098304616
-0.6998793545311104
-0.04887458291088909
0.238238922099597
0.3344188897519931
-0.024116432859047503
-0.5475815807377982
0.5206683277410714
-0.41233729864892465
0.11475848072628128
0.2781106055640289
0.6161253693576169
-0.6244618382385481
0.1721131830710285
0.4417256884878295
-0.6008518680790365
0.7190575658427064
-0.907845709526338
-0.8514679818055468
-0.8826133092394475
-0.886193253822239
0.2593474572978772
-0.647391655252532
-0.4680609361255853
-0.5525396301299039
-0.8936463794199623
0.029711564770776643
-1.0554447097691353
-1.6134733728507449
-0.39239746884048365
0.8487281482448887
0.4584473495233433
0.06294933929877602
0.5367950536546
0.14707872908303074
-0.8107726006766589
-0.23920216732396865
0.10211124891541233
-0.5218723065685481
0.7542245557671212
-0.16526243070483781
0.44827985419137784
-0.6755414250496505
-0.917297566421146
0.422375620705694
-0.6306952256277476
-0.1446531725839018
-0.8010498779950009
-0.26042037620891584
0.6600882821934833
-0.7924342231581207
-0.01508082153763066
0.34329868801408614
0.3841613021411592
-1.54332871283491
-0.730942989849537
-1.039690045448083
0.14557880287101693
0.8316643626740947
0.21946337936172078
-0.168633681993098
-0.6604527573095776
-0.19376582685468888
-0.571325654874422
-1.1112273425173484
0.7669818564456268
-1.1611055271713688
-0.7304114896250079
-0.9038905849971696
-0.13544293951303735
0.04460112204870529
0.12467243323273543
-0.7516197273048209
-0.030401223593820328
-0.5346165247178173
-0.6461081951506666
-0.8230937887550422
0.5607580740777455
-0.8157191052202132
-0.12130809770910059
0.04443411411155122
-0.9039540921195107
0.03769462858670629
0.010142500457414503
0.14772869871359176
0.9543124724537033
1.0422129485287863
0.9998728948753943
0.6041443256082629
0.6897075813708471
-0.5715625486198918
-0.3450070118523446
0.2604761923000935
-0.41555656351788967
0.8816273231336093
0.513516059740024
0.9580064226735228
0.9199376225256279
-0.9583399347205562
-0.46902808556479725
0.9646811935379518
-0.7126650173474556
-0.6921679691713245
-0.30498304813942906
-0.10403747320344801
0.39652344587347094
0.01583623754782492
0.7298833924865099
-0.8622277977945365
-1.1517667130764837
-1.3052804047463085
0.47397655677072453
0.5972303805708873
0.3935275568374682
1.4514216993802858
0.1334984744896217
-0.15255678723096583
0.7390306449769732
-0.07987593091018055
0.24498900512248123
0.6839127692803169
-0.5808641872949561
0.49490811692334036
-0.46589068984710325
-0.6401133902932685
0.7535873285825015
-0.33226084979934595
-0.05494480770570975
0.7234220430600833
0.774459689893163
0.05810156178973403
0.5119374789727006
-0.8373923363103127
-0.5394531784115445
-0.9935113907435277
-1.0346336968245475
-1.3664130966012986
0.3558447860791262
-1.016503406199191
-0.16767629098096623
0.5946148172241377
0.6376946876990184
0.2119284733775621
-0.3407187048544566
-0.6113251529010076
0.9577735549304661
-1.0869976414565918
-0.9891696188877098
-0.058742300703367445
0.3907678383754411
1.028716973009184
0.8230955180610177
0.6190270113234084
0.0001411904922624362
0.3805111449475837
-0.22145540826555177
0.39172219379183537
-0.11077556715320296
-0.3199881356941206
-0.9194268641060855
0.07464667946993596
0.08649079574138878
0.5993978571148957
0.6397067925478889
-1.3434213462644604
-1.428832649935245
-1.07188437423435
-0.5880651848813641
0.22742105351628863
0.8928880546042358
0.2620216703424698
0.39124946333792204
-0.020789253858087737
-0.185788866352782
0.25008411786969675
-0.21903253186728763
0.16472062149090622
0.6871369122052194
-0.02927289681858213
0.18061472026074932
0.9543566348308296
-0.8865735057011525
0.73120394209706
0.2314610685405396
0.773995305369417
0.7244429363624854
0.1831545457753268
0.25473743166605045
0.16937528446174285
-0.6548191984757954
-0.887135906860496
-1.269710939145922
0.33483342739814087
-0.002719401839231982
0.4583326407592445
-0.25056241370453863
-0.19411887220743765
-0.42164896703068655
0.39468241701413254
-0.21173586967310076
0.21308547083653137
-1.3317360974090868
-1.1926620934916157
-0.8630134090537223
-0.6736836951628615
0.4839439381783689
-0.162049019054511
0.33742741018444006
-0.47312652610925565
0.8418124603153115
0.23788967931616342
0.7739616971836072
0.03979266552564287
0.5260551144450293
0.9257767621581543
-0.24893580990896427
-0.004190914706807859
0.6166067416737624
0.5083548097997453
-0.7112907902407459
-0.9740785002955806
-0.301815630004575
0.6214565554315084
-0.3277531779209583
0.7637339644473606
-0.14798679902391146
0.15234790959241595
-1.3491518006300942
-0.9156708715706314
0.21156664722242494
0.1424037968307744
0.3012893052854378
0.4958227308161592
-0.47193777920661373
-1.155158800072833
0.32836027950058083
0.19487722306404512
-0.09339778268884605
0.5787107013238055
0.42146190595666044
0.2268553099898534
-0.6052680665044731
-0.9478254068994203
0.937722397197923
0.2530912612725474
-0.7441345210293162
0.6673355248832883
0.7384563734931489
-0.9249013726639005
-0.28942505474656877
0.4454245280550701
0.4797923747881166
0.37648154956045704
-0.31654327486617373
-0.8197988475262606
-0.1706781812949629
-0.6741687704402118
-0.4768565147070677
0.48934348602966454
-0.5841076246309743
0.6212484269655312
0.6904293901565358
0.35215304204918396
-0.04160733431914067
0.2783330296729185
-0.7537696055423339
0.9435707379404585
-0.6039748531129601
0.3912949499260756
0.5549008429893606
-0.22677615530671627
-0.317752801962337
-0.30951344019960764
0.0074336062029020655
-0.3118957444859402
0.15298393393694887
0.20330761140401957
0.5510160632435335
0.05044601856763512
0.2788772967181498
0.06166977683864207
-0.07933725038675551
-0.9006638824724122
-0.5321411820266173
-0.6284785081903516
-0.03524089893473653
0.478036335496599
0.4958647247089631
-0.01787694449360834
-1.2035721191410218
-1.1272472658186443
0.49923954133678655
-0.7052908909656476
-0.934462938105427
0.16273729266888665
0.5664376607731192
0.7338472928681434
-0.012872520527839253
0.8807590009650559
-0.6236019935449952
-1.1162153917216735
-1.3971290540520456
-0.12247682206313538
-0.5300633856463581
0.04151624017200836
-0.7336067074117543
0.46545741323456313
0.9786323294023814
-0.011081368079775791
0.13862419891599598
-0.030598159043939886
-0.9635078291454743
-1.135606786118964
-0.1228478291026096
-0.6998632854549053
-0.9653940398862159
0.42818967942919617
0.4542250827227568
0.33562401148145904
-0.3142638929172129
-0.7588281319038424
0.4779158542044474
0.7422996259090183
0.09120259940167097
0.07470711747941546
0.10942962257254643
0.9099642197744907
-0.9280085589387729
0.420839624013243
-0.10500981708732157
-0.870063818050878
-0.41702277081231515
-0.8627913976182884
0.16070375653287836
-0.1419083187384537
-0.3987924689425139
-0.14535668862691645
-0.9728374872552605
-0.2571806591147895
-0.13468189726816304
-0.9011952121110314
0.4530131152044579
-0.19103672555864906
-1.1678356874479703
-0.34777102165297197
-1.0098939836761205
0.24626845949367415
-0.5163263484192596
-0.857136361925502
-0.2934204007707118
-0.6431797938080084
-0.6778572355164547
0.02136931890970614
-0.47944924726954785
-0.5125810533052467
-0.0592463245693899
-0.27400165806242827
0.6619846007713223
-0.3384919658820417
-0.3886796831183471
-0.035067777829731896
-0.164182931325715
0.524392713415052
-0.4201045627801924
-0.7449888442410799
-0.09460790613130556
-1.4726775450915723
0.10543986611071075
-1.4294802819373862
0.4009656463390324
0.2929311933448691
-0.33005769674582053
-0.6762656290836123
-1.0098376745626194
-0.6136137535117469
0.6409044017874034
-0.7840879939812321
-0.6852024394415153
-0.009387600662602358
0.2744349244289177
0.6830573036398302
0.30932032870668297
-0.20043586727916113
-0.16969916547555125
-0.3033485496769113
0.6903766057939575
-0.6727737985052934
-0.09427173435648897
-0.27587174705427137
-0.4508610919616102
-0.895845182475676
0.46315038339057946
0.12016795195792863
0.2386661132180982
-0.2741973205409556
-0.47479155405030593
-0.3806464344325987
-0.5036881998037616
0.2529836985417204
0.7350852564959544
0.21945518843045728
-0.15158210474086525
-0.25731770534605064
-0.7342643312401567
0.8503440513322593
0.42072014911982564
0.9175513712421552
-0.67276649302903
0.3492086381646893
-0.18765254565041373
0.7706380042252968
-0.6406046701942164
0.42560511794474226
0.9027865985844008
0.7190402332462705
-0.2590212710857599
0.47432540965706343
0.431721323825125
-0.5653869817762082
0.6962659405501933
0.3831576223718116
-0.3004540697119754
0.41605611441197193
-0.42707818238318856
-0.919905239964338
-0.7419313122369076
-0.1583675549375038
-0.3568817708413852
-0.38596001699926263
0.8420930387690124
-0.46924371077226656
-0.6885374851329681
0.8324432244898016
0.4787172702898403
-0.7166894312522809
-0.12951994913680864
-0.6148471920492753
-0.17559623459779355
0.3189255225644675
0.7122205775074631
-0.942498849124225
0.3433742459817453
0.5469250832452132
-1.1941090148076714
-0.9908086648159475
0.24221475144149218
-0.06421492334514478
-0.7064296727224277
-0.09600350286681114
-0.7824321267563974
0.8338580172496924
0.019322404200601336
-0.547539615339598
-0.2885178629389417
-0.9577429381165781
0.5171120873944228
0.8804652320053451
0.956262565851113
-0.30117957032641146
0.8119798143921164
0.18114295830564361
0.7917132154436677
-0.6392219096930376
0.975049586880208
-0.8301712418662635
0.6705524932578371
-0.8110135194175967
0.32293132694089927
0.17168580164575
0.7080856366767215
-1.0457177598469423
0.7306668009438004
-0.4512354358769653
-0.354123952835574
0.6653311959380878
-1.0030263320512642
-0.6496490654615676
-0.8471454467191074
-0.2361168234415145
-0.691901258282638
-0.6039147923462549
0.24214443172824612
0.6040974113929322
0.39333475748496327
0.703874524980002
-0.5798631172687144
0.09015970020873101
-0.3109147963498208
-0.28029699708573397
-0.2343282168964198
-0.8751633113012278
0.7059780733248142
-0.16329282946366952
-0.5119426736695329
0.9530186238770402
-0.7167256499447583
-0.8798351743048021
0.04984644701480667
0.48415840101981716
-0.4569353963713497
-0.02684637243359463
0.24404937554826073
-0.526040628155124
-0.7082244408867009
-0.16126985657667678
-0.5013132759439802
-0.0904163402357978
0.34238074130247365
-0.39756574664903466
0.698058016777074
-0.7401188625805742
-0.06267035969978883
0.5971407595017311
0.6340959848049452
-0.3715190704682529
0.04260424134393337
-0.02754548424564418
-0.013646396065614796
0.9430597039014406
-0.6729867572903299
0.05178336261623029
-0.8502479701302488
-0.09132794507122344
0.42698894816599786
0.32533857544170036
-0.3943955621509989
-0.8951660214280666
-0.9470417529698425
0.1556813913499864
0.6172019134917408
-0.8258465837913282
-0.6506696480254106
0.9973209085872838
0.5623000123348678
0.95260300960025
0.0779453761924395
-0.3616330678140776
0.19121403473346577
0.5536046920454978
0.396228057431102
0.6974040029047515
-0.8685084513634324
-0.6592296491584164
0.684399243935792
-0.2318593242585809
0.4313949174871894
-0.33473413185436707
0.7529941925891157
-0.546611059061201
-0.3454387553699487
0.31544174924843227
0.3574578083501705
-0.7445506644918192
-0.7546756419055092
-0.983628924659941
0.055290396103734984
-0.2050460031278425
0.31745436474546396
0.10198045087926899
-0.7323810688220056
-0.4503806715426466
-0.44906346057152136
-0.023424761878898748
0.49461259743111485
-0.5715509069946347
0.5236086614892272
-0.11851683051703166
0.6368142068692608
-0.14619120331893676
-0.7806917426804645
0.3051921887812923
-0.564899126372296
-0.3859065367208334
0.875741718511742
0.09584228051945742
0.43991898319543976
0.6282738402551458
-0.647459597110073
0.6933514915251036
0.08970482631982724
0.9281017409662342
-0.36913502547505905
-0.6723406590324963
-0.47447123264706104
-0.7461348485538661
-0.2988585932675708
-0.6014886422251396
0.6373993219329525
0.23517987863756235
0.8309420440759808
-0.7305440747826326
0.24401729488410884
0.25110471814662877
-0.054523441406421715
-0.23825035841006242
-0.3886448504930369
0.9243521021976036
-0.37052211818490904
-0.2793073251351606
0.23149061275430172
-0.5956296716184337
-0.2940347371631564
-0.20403262345331497
-0.8728232200629611
-0.6790853661295013
0.19876822195602228
-0.08712131934830625
0.9255081077854033
-0.838207836741095
0.214313169283566
0.8305127785193055
-0.7087356736119708
-0.9577233694671369
-0.7915762030015927
-0.1076666827803883
0.4328055831977177
0.7121690462955991
-0.47977232970140876
0.08906487326676556
-0.06683805398717572
0.5155606195956814
-0.31063499977039677
0.6984118614823968
-0.8345854002078399
0.711903709226431
0.4572847435829383
0.07827958651954407
-0.3078089056071165
-0.4830399193983201
0.44105219874137425
-0.7315580411372762
-0.04219237941389631
-0.6488316167421291
0.6269051547204749
0.42011368841386476
0.5513033780939627
0.2957515059221589
0.7497490671778131
-0.1456892763515328
0.8251863598586577
-0.02446424122286406
0.6957961281679284
0.7016226961179448
0.08139988257283554
-0.8912173788493387
-0.37671711645920775
0.7516295562111246
0.7564836011448859
0.2787224783033102
-0.17342339525348888
-0.24391269894160908
-0.48955385851333194
0.5625215173736384
0.3359832500433784
-0.8275336733799558
-0.4036505841948178
0.8040999118809025
0.16789138688048655
-0.0678818727155095
-0.0722137673101717
0.9481648662223956
0.14239168619106368
0.005878731849165542
-0.7979553052139667
-0.797795532928158
0.8819855980701341
-0.8208508519736505
-0.6146806210842908
0.296268141592742
0.42895073157987695
0.09137671711696928
0.00609232569259116
-0.8611943579413582
0.16604202063561263
-0.6248841447504426
0.19317796314765867
0.32766785830957085
-0.011778796535668384
-0.30990368756469283
-0.8555752911516741
0.8302796781544194
-0.8296065441366702
-0.1501241281730339
0.9039965771402639
-0.2876875235617503
0.12687104144363803
0.41265333144935745
0.25995354425514194
-0.3436211782591094
-0.6873138318338559
0.2916616486330918
0.14358675709764193
0.2117219821804758
-0.5041533533686304
-0.5153227528575083
0.9337499953627265
-0.9960455890633042
0.2244440471890953
0.07875445504186862
0.264423642889641
0.470104192570959
0.24487993294618993
-0.7048435685473418
0.3151556717359401
-0.41720629244094243
-0.26748323461038787
0.46543269150228705
-0.23530143745386958
0.5613656525743713
-0.4627675258154427
0.7048463733894795
-0.498472536652205
1.1377905901936927
0.452106020889176
0.05620752335930157
0.09403559042388121
-0.7206590280889795
-0.38490468270289274
0.7233596294090843
0.373672317714217
-0.7333519706904418
-0.48730209195447327
1.0789141376454616
-0.45105888759066903
-0.5444480587814704
0.9411342627280451
0.0283487319326877
0.6302369139776359
1.1830435125970622
-0.06723713171915631
0.8169660289262888
0.7317995947042979
0.6943876632173765
1.2616093140660107
0.7556133154305772
0.06140137462434118
1.0897268290600566
-0.40447590619822665
1.0279595787799964
1.048997622356546
-0.3062687576203153
0.009409782010635075
0.7185814037341233
-0.7143197239160695
0.3027586618736596
-0.8008297024492292
-0.8230664052924745
0.09396251198641402
0.7854594353098237
-0.24402553261980825
0.13739958440276115
1.119780760637063
0.3446691104009989
0.027278696986794585
0.6451248169215892
0.8077841872556376
0.5027876076143067
0.770781083709422
0.4028128221976879
0.6823801211971594
1.723573355850877
0.005970376141828038
0.4237876839244201
0.6868745969437642
1.2505724094785131
0.7844138811469957
0.7441637434549019
1.0324769140763326
0.13480611240616502
-0.16302313390288597
0.43709361353209253
-0.8381461906670876
0.6658471303742207
-0.8951273105676538
0.377317746315124
0.7670538365658749
0.3223385222292038
-0.20210092302283683
-0.5179147813034252
-0.17462997695069565
-0.29762549188920917
0.357624045895595
-0.47491924149571535
0.9640067613725085
-0.2802161225109987
1.4746217598607787
0.8783281696597695
0.9370026990464679
-0.0485357484882886
-0.4903290802061989
0.15451592207167864
0.4195995079216843
-0.3027143912311098
-0.3033336093003653
0.19350016511016443
-0.014461532110503415
0.9186748181609693
-0.6150002220192895
0.7890196035537832
-0.011309169070319092
0.20897088350583784
0.02726612051224128
-0.014945014788471938
-0.11741376226633234
0.5164506837044093
0.8606771317527115
-0.2364765883378076
-0.03334853174413094
0.41934927736326894
-0.16199664648497458
-0.2401577865145023
1.238026958627134
1.3254019528605265
0.8913396567030514
0.9330458283583236
-0.03312897328719444
0.10087893102299703
0.2877327128231255
-0.5953153960135604
0.5974126159611102
-0.0574579906299599
0.369657453139147
1.313463449031523
-0.3102923485143004
-0.18029878442048744
0.9374263491796522
0.11248407362300199
-0.9667826759121236
0.5898758550406663
-0.793124341454679
0.007817264521553728
1.147884839270002
-0.4164771378404282
0.8924549154148598
0.5194644471683408
0.02780819785761473
-1.070360585566271
-0.9531124621557622
0.14320619038770319
1.1947183616722585
1.1841189991960084
1.3498267361121188
0.9366059517108833
0.3135448846532033
-0.011448464738907605
-0.6374707972565529
0.07132826300602363
0.8664467705554597
0.4368380677543206
0.010649839024023965
-1.0107174880253056
0.3405952710341015
-0.4601738180282563
0.6874102596785955
0.37089262270869916
-0.9110628837944571
0.24295436435163315
-0.19468184297479652
0.8341897583127066
1.2224911256286828
-0.3534551204128774
0.8904787763549462
0.2873200055036496
0.5954510364004538
0.09944368408307945
0.5732980213874602
0.7032626114409666
0.9088404936581159
0.8610660184771379
0.9900860514559416
-1.1456564966357998
-0.6429473051113037
-0.007891098328037964
-1.0785342148734072
-0.7664431025616092
-0.646210897609331
-1.7555473677669817
-0.6494500460324588
-0.8619461211177328
0.1910566728624274
-0.996784863522389
-0.8983467757563232
0.3628919061530598
-0.1444085278214143
0.6352837421183443
0.20810354763302902
0.6481158257778443
0.5760222580704326
-0.8170460888715352
-0.5630365230178634
0.14513125117625483
0.7187776522983294
0.491328468576128
1.3378921143385794
0.6274866342263291
-0.13472812373620138
0.12508054242577987
-0.058784969627627526
-1.1727613018198957
-1.5748427481742402
-0.4429718946874056
-1.2085522718912203
-0.4475444120768371
-0.8010123643889988
-0.9746175688355707
-0.07051620487054307
-0.06779868911990398
-0.010944752298423004
-0.053264576257075376
0.6180083856189769
-0.8244588377983035
0.253924674097592
0.4344229437083277
0.38285213654742
-0.8228429044450657
0.34506328803315084
0.8885700641813878
1.002214783024759
0.3126200422550417
0.2690156293704725
0.9169488908796167
0.5266909261528298
-0.0650880335799482
-1.0134245036845275
-0.43809150331571384
-0.866347275494716
-1.490048009804363
-1.4379008075060915
-0.5364686850621136
-1.035989615250456
-0.6900099017601521
-0.4148054292003184
-0.3490600126475018
-0.03274173504445488
-0.8575717901575594
0.3199945853020806
-0.13851397024891918
-0.17920664554293256
0.6120797630903178
0.032994078712273334
-0.7510489453701421
0.9606728833973559
-0.11947211278660835
-0.8831347431596103
-0.4840350446819084
0.1882263239003406
-0.2552020587012097
0.016139620190758604
0.1598558439913466
0.5680683911358239
-0.6592936738458618
-1.6994823721499137
-0.5340553473735464
-2.0673909301900832
-1.935001131246299
-1.6422144388243094
0.3805077850707749
0.14084494087413374
0.6237149706029751
-0.6133660919620895
-0.34701868673015773
0.6156310302527077
0.0704003246201858
-0.3708213697730153
-0.6125320532455184
-0.31586462981208285
-0.6035876799499291
-0.9433642384201715
-0.8400875644430311
-0.20161309566540736
0.27914713664113355
-0.2927972467869074
0.25437188924747184
-0.5569822277409187
0.6290152273131691
-0.4338659172998225
-0.7368992151366189
-2.0412406834034678
-0.9469212517484339
-1.6412929933989975
-1.900531794522878
-1.69191920783269
-0.42419722577493296
-0.8293161256901671
-0.6877153019091656
-0.426942080202436
0.13480068438779233
1.1310553961792353
0.2798252686569354
0.29849541550116143
0.7263992974898305
1.1031980392536764
-0.2906875272413806
-0.017978462444011478
0.8667717841500643
0.9996584428915227
-0.09136102223604348
0.6662585286518894
-0.17667702017870138
0.37639808654461193
0.13682566211837283
-0.9344969558771112
-0.5109929283198654
-1.618766193771815
-1.6496985237861101
-2.054792705885549
-1.242862933934985
-2.1670587198624265
-1.6465624026155463
-0.24116598418008836
-0.9203736636045005
0.29851635976005697
-0.3157509227428047
0.2603854624073587
1.2811929499775156
0.6782185625605086
0.8974204913008812
0.6163991047602707
-0.23304278274205095
0.0756436001238592
0.945701327357362
0.9918080771314031
0.18559574188992284
-0.008371033851321874
0.9959180596315217
0.3370950406166469
-0.24159037660872143
0.41541743715068574
-0.021407382782100134
0.1657672601993011
-0.8908910927142418
-1.6064476750858796
-2.7641006167025863
-3.1455179566595337
-3.1666957578639376
-2.012296268563344
-0.9856849439154631
-0.6507496412736888
-0.45072025587310377
0.21357256798252455
0.26866531820047435
0.3695198510811646
0.9471853114579841
0.6668105086490296
1.8310881621627835
1.2850921846388674
1.0050434123461418
-0.9779036894742175
-0.282137447012294
-0.5488884173038219
-0.009631643893441177
0.08130327633769086
0.30369842598878255
-0.03301153155117323
0.9852262161516016
0.49033016838095805
0.599376249951975
-0.3978239476866299
-0.6975535341265329
-1.0307531077233314
-1.1798022819497576
-2.2022668733009088
-2.030896111325158
-2.871826957779747
-1.3430472668289253
0.12629176305659479
0.12822821930730763
0.4471660784282967
0.2351564803557601
1.1986899710136096
0.33679304326305803
0.176461770549433
1.1969569374114173
-0.7013133470371404
0.543143734702575
0.10256563361345486
0.02597294531389971
-0.058185101542896994
-0.7740438189362244
-0.925195435961726
-0.028940315556500392
0.8909790847112559
0.7859946428949705
-0.027906767448677774
0.2895508891959637
2.012005833979061
-0.5676710519955721
-0.6519604617534119
-0.2817644439959094
-0.6953636222711099
-1.9029325152899221
-1.8950130299432775
-0.09600718255920372
0.58674126693012
0.8337697887940168
0.43270397274886
-0.3960054021564186
0.820878961776378
0.8922778394247681
-0.164757461596322
-0.2855291649169194
0.32613955290773633
-0.7448399682642245
-0.8140473207780566
-0.5489330981321168
-0.8835049912097118
-0.68857305146818
0.5805352479199886
0.6494051763629759
-0.8173440311064235
0.23185244342548011
0.7963216458603538
1.228263088830703
0.042033870726483506
0.45793086248819165
0.9326479549290667
0.17746839539484513
0.7572767650736503
0.008660229035964322
-0.31338029826387154
0.27101530824409864
0.8863911300313536
1.0285888429614571
-0.7022066071962125
0.7171268768984259
-0.650220683517549
-0.4635955496457092
-0.46373406681785273
-0.04169639072694639
0.38703710935927205
-0.4339158474707773
0.034441342277261366
-0.9295365722070783
0.5814017962168593
-0.3957835996877821
0.9086175317281413
0.2880890402899306
-0.506936330248674
-0.7405555381611726
0.9438964957060954
-0.45707845124151464
-0.41474393019198974
-0.31570179262037584
0.7318517131906699
0.6828352896387833
0.27420024746188204
0.9457327445604503
1.1588158510361664
1.5157617824805474
1.1267328729278634
0.7646270431554804
0.2147394318011294
0.4640231387448376
1.4393377519706172
-0.34014423748121364
0.5719918301811132
0.4745596669767242
-0.08341294186366748
-0.1670663799094881
-0.07419202966040321
-0.46329798328588284
0.9403386294741131
0.6054984182276593
0.2077110485514786
0.41576617856876696
-0.6180467064873044
-0.8881191230249128
0.047954650186857975
0.2610326181742594
-0.256227958218329
0.7472912784269017
1.030438294594863
0.11138026238728328
0.7089827210419315
0.47141552648057794
0.43074486024387804
-0.06758022998950887
0.6391037197646644
0.34952167575165144
0.4223446924566867
0.5892958995484447
0.44539119894962537
0.6508785456952434
-1.083133808831571
-0.05732243715804391
-0.003931190103167988
0.5271850525817404
0.759685173757018
-0.01871888472890559
0.2720324391400674
0.4251933052597081
0.25754825529280323
0.9900256428508081
0.5742088997309965
-0.6373064684070741
0.9817751724759617
-0.39098132280179954
0.3881393150803756
0.38935061875506705
1.0902173241662803
0.3218121850786837
0.6385955165394087
0.7301340434010278
0.9696326487154882
0.4914450953636204
0.28119331691496297
1.658900877500363
-0.25333972170827546
0.627573750124296
0.1857340760954301
0.4308480327810029
-0.0057199066294331925
-0.8273416726750085
-0.41194560267898805
0.151706493636484
0.2803007959846668
-0.7739729761349167
0.12044586635724326
-0.45520818736899993
-0.7954820924189641
0.4585726471395801
0.038555713178196414
-0.2712134436270616
0.9207042692062005
-0.5585444441138987
-0.0015195782687973168
-0.23939209260208916
0.5011034675113611
-0.24266355595221908
0.06564405273002692
0.5449257398986538
-0.5561523508186572
1.00300776184979
0.07779942461917444
0.13677300660269864
-0.5088396186067111
0.33548959580061977
0.07998286705601823
0.06999873023329566
0.0647630165128649
0.20862936716748393
-0.6723859753532174
-0.6408881484355269
0.9247686982255132
0.9026006294600748
0.1632798950516552
-0.2803656900803022
-0.7657638329428282
0.181859339277187
-0.7033804540484689
-0.6678971875561164
-0.4476276144121764
-0.15045659387958313
-0.040432129293179526
-0.8358646792029742
-0.2100661561903571
0.8804769925346144
0.6295730666870645
0.17568644943080153
0.20412638379996706
0.2592300345443217
0.9026164019057089
0.7747588650056852
0.020013190997643395
0.16568155189442238
0.49058449134738075
0.0016713106389761895
0.5167086430490659
-1.1104025835427769
0.02370261475301651
0.4357847630710746
0.4208871999709518
-0.03492885750254073
-0.4710915462213583
-0.7409354827110184
0.5738766444012495
-0.7137311500589265
-0.41149758896192057
-0.40296222099696477
-0.9992400254419757
0.5060963403176427
0.5261110062689178
0.4734040271157732
-0.20114553956400996
0.3507950349432461
0.7211424718948952
0.6179836624116899
0.02756336639875832
0.7042918199154643
-0.3503172240676688
-0.6100184727484992
0.6641256862370641
0.7041239354618497
0.31810495528598504
0.1213298516310661
-0.710424761604409
0.7699341914946004
-0.03693891204890059
-0.043948270567796925
-0.4059664443605846
0.8283229557020089
0.7344826823464945
0.7298801573211928
0.4453339116996644
-0.2826725982972751
0.6646972474016979
0.8647277855359008
0.8343858598127794
0.7615322109081464
0.6785626017499268
-0.7906194572373568
0.8024271262879696
0.0517030545245468
0.08130943025467573
0.5499009758947359
-0.17982438993756897
0.48797367225796334
-0.1266384036611866
-0.29280299667125975
0.0011880812125852735
-0.6241609443916435
-0.6430671385859827
-0.3129669244405072
0.5880786672986722
0.6730630467831942
0.0935207536106519
-0.32908223721613283
-0.6003894031095403
-0.8642325970811682
0.06238164775017774
0.0221540866354466
-0.7713077122854874
0.5640210492678313
-0.19793681202279712
-0.23470397248003838
-0.2497118072298814
-0.18625165594422577
-0.8334619176877871
-0.23707439766912475
-0.6498738576075156
-0.7252641717910029
-0.06447292100654245
0.3668625120352804
0.7364162924301387
-0.10525200066649895
-0.289770108473897
0.4139004904979724
-0.6255290958844193
-0.8781094029198224
-0.19947865356195082
-0.9319074770557647
-0.1801626436007182
-0.3104526981065814
-0.766565509285247
-0.5967444465848704
0.6400068809036712
0.18682125446810072
0.26574625813336095
-0.5643955463686903
0.833648914085025
0.3334838068297794
-0.636936356751207
-0.7356010423254682
0.5695027868338807
-0.1041058798106107
-0.09561188899234165
-0.12039773455207117
-0.5266193362621576
-0.15220025009804292
-0.7117433947676883
0.23856181889108638
-0.19857988333436005
-0.31726982054450614
-0.6306283887238652
-0.5972765903015104
-0.48370485600255775
0.057382864865759636
-0.6748718503843985
-0.9694711559660265
0.35002557540727514
-0.9146775408518836
-0.690592188276369
-0.2630222388357743
0.10558830600219538
0.002457674194874082
0.4624714640276695
-0.6619556282026247
-0.535644797255072
-0.18923332261707748
0.3531763342656764
-0.5243189029814446
-0.78989468588156
0.7579203812029638
-0.6364348287491394
0.3051477269058743
-0.2660982577961504
-0.8614965074244618
0.48756373264348907
0.08277596090427045
1.1729038618851348
-0.17996237457539843
-0.46670099259649256
-0.35079251034547165
0.44668610917453294
-0.29062445094274064
0.6573124720405147
0.7850479834262388
-0.38131461906829794
0.08437753964938614
-0.5562705962154125
-0.3931209104829921
0.8654800350885667
0.5598008365732403
-0.6689686755430271
0.35270951736099176
-0.12431976408719825
-0.3403934208206605
-0.8928398334465777
-0.02454212734080774
-0.10551361601694409
-0.8280564795860698
0.357638832901133
0.8409048034352846
0.3777450337619788
0.8929019715942088
-0.3000480454368067
-0.2700080012359162
-0.18575180618349665
0.8349922583967386
0.7304269221617634
0.5426868673039057
0.5464152418170892
-0.3790477619735869
0.25029586375286555
0.7264214067815418
0.9161282924874415
0.14487766257703646
0.6137837195711454
-0.0870466591296527
-0.2494726266324294
-0.630722052850324
-0.7181265253472611
-0.263763093513959
0.0013845070714513241
0.2769963404394489
-0.40925437015059685
-0.06106694137823765
-1.038513811959616
-1.066804555639988
0.9347271535999228
-0.7249895579229364
0.16321240248710478
0.035357559228950085
0.6720742578727203
0.7844291579753245
1.024657415255407
0.13591456502028526
0.5727146379584795
0.06272885795384858
0.49850291609191916
0.5617569295092454
0.8686033462947282
-0.22064113482291473
0.9168292731422036
0.6664724406042186
0.07739937485457926
0.1601395758990845
-0.7051155722261997
0.4116616767846599
-0.3109769920872659
-0.5363945199224851
0.7859736910748909
0.9913068966025358
0.05116833242337093
0.3519536073368123
0.4220200442208999
0.5736988182085689
-0.6334566394366508
0.2672318374385249
-0.03032545115093525
-0.5705384253792719
1.106519562209232
-0.5985508754101605
0.37078327444282677
0.615987978137214
0.5738568128603803
0.40119407399308504
0.01691894966397189
0.6695301937970325
0.9723686953860108
-0.11230723697366567
0.32863857487861503
-0.4408610446555838
0.4750712826158889
0.5316425319001492
0.25456993679578194
-0.3651296061765455
0.6532419094097722
0.38440978965383477
-0.18259423416055887
0.13693692963414894
-0.10911238341986206
0.44739246553648404
0.36907467020870294
-0.4121639566837316
-0.8941077789392653
-1.3230641998814334
0.05105744171303765
-0.8258234374900593
-0.8382419523214527
0.4895008171329372
0.4530804731865506
0.14308999854357288
0.03480602600505104
-0.0052801182022471525
0.10709910614476495
-0.5759292726196182
0.4526246419600333
0.1089453660170197
-0.25146851823654015
-0.4958082116673926
-0.14326195623599916
-0.5467246708234309
-0.9171710560188118
0.11187176396758056
-0.5719505597124815
0.7756267179204157
-0.4196550781024191
-0.3330947544689191
-0.23864269294004314
0.18231365291544568
-0.056897014572760425
-0.6618836022379344
-0.7155697256499981
0.1418951464988111
-0.351262254296409
-0.41014961486985746
0.8108043631654426
-0.35590085675006566
0.38160785474770753
-0.5578265440227934
-0.053271644184140085
-1.2894283813453018
-1.5032514485444557
-0.4000389296521773
0.4656440068207976
-1.0884328522624094
-0.2465930462044936
-0.9310078540895433
-1.0895040765131196
-1.6959545436949526
-0.19705494833768747
-0.08563938401834277
0.2779754100035737
-0.9685275811331548
0.10313073112307951
-0.5451379580796317
0.4348763950834185
-0.20175974121393936
0.10299459631393396
0.4169763755725091
-0.3775317643741167
-0.18895690715663363
-0.224804823301352
-0.5241498807253684
-0.4909035976346695
0.697666691984329
-0.0008696566964010837
0.34302388776302717
0.2031060059152317
-0.4502973531539775
-0.14575368987154283
-1.6410832908541302
-1.3333318604037567
-0.548734940101188
0.059127205782464554
-0.9102753791929167
-0.07009267075413082
-0.14711937356774418
-0.34642314660908036
-1.3072170590929795
0.26657626666048007
-0.209003985874517
0.7976365568510213
-0.031239817604496938
0.14163594725631895
-0.7592790444547068
-0.41440493429188086
0.7208582222396624
0.6887234980025864
0.21345205707550774
-0.14803298360357284
-0.08543480565639539
-0.27462711593941924
-0.18735995514723097
0.26308100519274813
-0.04142790287207113
0.03007819296847463
-0.6878753781821758
-0.5206107483252529
-1.3114991919230166
-0.3688514196573233
-0.9908232319839204
0.03044420995343661
-0.9205484805510706
-1.6333023259881772
-1.2155165921970994
-0.09036581583581053
-0.8448390554201419
-1.0623850224568128
-0.37598224906771643
-0.44210988551310915
0.9522021653286278
0.6877536006992679
-0.23547123898105382
-0.7399071914976554
-0.14497783636844755
-0.8657632753153292
-1.1695845887256595
-1.1013946411029207
-0.44576727979233083
-0.840070067566412
0.3566078830386613
-1.1021275608418242
1.0398615705589576
0.6330192739945693
0.07765143411824102
-1.2201993790779555
-0.847968110758111
-1.2318891025796586
-1.1317259834832731
-1.3341022830328726
-1.0827590771586253
-0.8760693198759375
-0.5160613546606996
-0.2708991067916837
-0.48661474434680163
-0.5644269121690682
-0.44409838360736936
0.6439834808300173
-0.7894791849683165
0.4577733312672002
0.26823836820032404
0.2764723851258475
-0.7145402159459554
0.19262182255285992
0.19081250818763718
-0.6319884365617446
-1.7336212845257175
-0.5196746142738792
-0.811084441183245
-0.5602838413194826
-0.9729314267299596
-0.6287161986579126
-1.0704890212137832
-0.3636663098605453
-0.2918743742367535
-0.28234319259829116
-0.0532878567862091
-0.531129765386968
0.07078788235888091
-1.1382027519354943
-0.500398919286425
-0.018398229405873424
0.46473824515982637
-0.8976432292992917
-0.17944469300774105
-0.12423141619620251
-0.3834995612757018
-0.929542746471903
-0.7167737193978558
-0.6465949659187504
-1.0810484396773732
-1.5429537737213077
-1.453974264703521
-0.9249796779490528
-1.4752795300511325
-2.7095406961670108
-2.071567747247495
-1.4459157521288217
-0.8806090511322023
-1.0325321144673636
0.10578171310611646
-0.665607775245158
-0.9461784877361696
-0.5480395446582377
0.22770847752866633
-1.0101015259712138
0.15430962761589628
0.27782892586491703
-0.08793491155629349
-0.496389370800911
-0.9555075845287783
0.8194519256911781
0.7314692363182084
0.8497611016167894
0.21873914516634302
-0.34531723042946594
-0.655777886422029
-0.040341715052931874
-0.13003668446306488
-0.9460748011886286
-0.21252468162414107
-1.202317007212363
-1.5445897464575709
-0.9148041444575776
-1.47945498885149
-1.5421114169359385
-0.7640907931340217
0.6435855723268555
-0.492145696293807
-0.854654774585702
-0.048637472731128506
-1.1921499638347475
-0.4503125924413694
-0.8083218335254473
0.4378244064722387
-0.05495430712053823
1.0532286975161445
0.4060823618272569
0.3877376652613489
0.30716671835685344
0.6061854374483427
-0.2719766987343224
0.2243674413617467
-0.7259645851512998
-0.9493031485771829
0.610481483796723
-0.30229108923556147
-1.6040341476456508
-0.5239340054883546
-0.49525171419796205
0.2477578204689148
-0.7216714670744616
-0.5529801695781258
-0.059042635798834966
0.15621929682597535
1.1589183371619136
-0.1689483484333015
0.30118399968922793
-1.1391705695333074
-0.03916311167614967
-0.3427923267311301
-0.222255233895001
-0.10566188023978688
-0.22728032455203148
-0.21101056482347944
1.0225621511986278
-0.16455631107015045
-0.1120437812474149
0.6500476031292386
-0.012275837693624725
0.10664803780316852
0.002239508558964902
-0.7304826486963888
-0.011188090054194954
-0.05756121445802247
0.21407268566090285
-0.8140772940854674
1.2504568452849012
-0.45892095681056355
-0.6541759240589453
0.6106153403570743
-0.07634250401577583
0.3499383049970237
0.9956341343674064
0.6730511699772127
-0.41764866697139663
-0.9679511394111215
-0.5432901744886827
0.291271310651169
0.308125916985178
0.5943939773833318
0.5499959783076346
-0.2689153666713074
0.6207418221299404
0.12945056512739575
-0.7602705185781381
-0.11822371722765652
0.4016311657474192
0.9805251104687656
-0.45216328351993224
0.7631610466719069
-0.2917228317641532
-1.3208640630334227
0.816083908926935
1.2874908911800478
0.11218792710941129
1.1416715102752109
1.1480793901253021
0.2506262776527054
1.1236788766100558
0.4346542940926992
1.789218547727355
0.4136451981610131
-0.30124253939694023
-1.5756133769484981
-0.6465903148911286
-0.16730917408084847
-0.7842961704374356
0.5817850237764369
-0.3336418530246556
0.061480435854287536
0.20285164656470422
-0.5384887718097395
0.8020061383595571
-0.4492008655550695
0.8628713464561872
0.7613033548069426
0.5982276031525846
0.5688620139306664
0.3827970646165233
-0.025303529575630958
0.8852263462232588
-0.19798833268355767
1.1670313541344912
-0.0500239184058264
1.668662496362664
1.6153898438163683
0.9057656794994102
1.2976965467952128
0.7959290798410693
-0.6739250506493079
-0.8439801636568384
0.009699625079827363
-1.149085206052035
-0.5490202103675954
-0.2979276127043187
0.2465779134791503
0.4520924683861404
0.6190593105205763
0.6903744670163471
0.15642152434126408
-0.46260366838801537
0.9875953335379408
-0.7635697142256663
0.8923028084716691
-0.9788262390736653
-0.6736989661455921
-0.7132860925266122
0.021785169301605966
-0.8371425632656169
-0.15394730476133073
1.641874793544771
1.6439988872119653
1.0083877705740731
1.9569521893309367
2.898902182076737
0.9349976703169581
0.43694668430972144
0.42845137845635667
0.2227070927964612
-0.5995648606557623
0.4517477330036589
-0.46619113936586765
-0.680077998382742
1.2638217861011587
0.533931351009087
1.0508969938211579
-0.2930017917545252
1.114595226122352
-0.7070601307949821
-0.6877841491295332
0.5896668727834282
-0.20627703682267498
-0.9703890077549464
-0.7152080516689221
-0.26562901356801083
0.08698887783187317
0.521402079053333
-0.2609877670805135
0.07071157986796474
0.5555018698670375
1.1205119185266847
1.1689444216903404
2.6963789004591523
1.2829347715863268
1.2734831386525176
-0.05405106954232387
0.5428844917558879
-0.12472478376772889
0.42668804777840014
-0.01056118632497202
-0.005049849768225077
0.23894274831533197
0.6000120639641745
0.9285419815038952
1.0931656982644622
0.5239044292152973
0.6265302978046495
0.18959290755709807
-0.9052719940493148
-0.7608598118897947
-0.2871318639522986
-0.4917353691483965
-0.17896238643888435
-0.8776733129938954
0.09033418186881761
0.9886380833565581
0.23284365232020937
-0.17842023404275933
0.9664649608661198
1.0254248719900192
1.025852930826134
0.6486625434981853
0.3228389730021149
1.508716769204399
1.2199637660360758
0.1003525441782821
0.6167863462044101
1.0878413696980689
0.49115818466860584
0.10222281318443681
0.7251241244719923
1.1036960830333626
0.003372945606086659
0.9808154787113461
0.10100955529497661
0.4684487474793899
0.21608996617262188
0.2887954670243276
-0.3646424469564638
0.7014348717337007
0.6034935481793254
0.5568982132785056
-0.018335288881986617
-0.47434135364204916
-0.004532426315123822
-0.10457237373096491
-0.021290257279310332
-0.0449276197945585
0.536785293461296
-0.22826410510558548
1.0255084676972248
0.415511310939099
0.2987330818069823
0.858710466614815
-0.12403792992080152
0.8454887274007684
1.2254356623803833
1.034843403913892
0.412949287587531
0.66442939612822
-0.35962553551351584
-0.4106810754014687
-0.42803859202873623
-0.3307771731298017
0.7297227874739756
-0.685697625648922
0.9295769887697619
-0.5610396554660936
1.0131194329888553
-0.4593209734608193
-0.7137211671494498
0.7956886357458246
0.6226318839982735
-0.15322648329399974
0.1267528187319962
-0.7743060244900062
-0.38186599423593043
-0.1192039187461583
0.03915665388461408
-0.689620345923105
0.3896611860053744
-0.815489147130197
0.5682553264749209
0.47708181194075366
0.768936391552957
0.3073303244605723
0.18107021436488038
-0.03419175887598499
-0.6202072600229553
0.3313404802436694
-0.36847995572150594
0.426849330310904
0.20730180454007097
-0.7539725096190488
0.2659256954023896
0.17069112027807815
-1.0346488577736
-0.8962945626934993
-0.1493961395496474
-0.6493426951228728
-0.48699238075288975
-0.2319716309669697
-0.4528456023562863
-1.4328718496869204
-1.5345904631991099
-1.0002717358010909
-0.3352332378639211
-1.0214824490833514
-0.5346587102856869
-0.11606385462072072
-0.5747864517129153
-1.1356926117153932
-0.5054216973266186
0.00607819630777788
0.09918604901957494
-0.4571958158210637
-0.1645985892594653
-0.0995010290085426
-0.8310099905203451
-0.20007826270002216
-0.5447221698561389
-0.25154813284754085
0.7545293764964441
-0.9239006909518509
0.5102470659460153
0.3908679278544285
-0.4697370923300002
-0.7838843319371702
0.17384671146720462
-0.8009053872995928
-0.8577454359210495
-0.3086745911132402
-1.8306300454740514
-0.8006600100758872
-0.9397250462792732
0.7124805615820156
-0.9688706508911962
0.5297576376488884
-0.6332264954172141
0.3481434007896511
-0.1333393910562544
-0.38253123057794025
-1.0256860980214402
0.6076127609827038
-0.32817180423320985
0.8519782772814563
0.18647353899980001
0.6907667511846625
0.46878910486575287
0.20149025339097282
0.01535460164657465
0.1812790569516276
0.7705775626522895
-0.5899271688415757
-0.24615348575687984
-0.20407073592561348
-0.029961071835104134
0.14232545758740162
-1.2120440269863637
0.3127176627547406
-0.312536764504382
-0.6836545060364927
-0.4776030770892892
-1.1603382271204945
-0.6461657619734661
0.4953816637694342
-0.9017155747190555
0.515690273802568
-0.6750228766935611
-0.30417242138779427
-0.47887684078634163
-0.1725859057459142
0.11696319410014272
-0.8282175564623317
0.6840816004251686
0.5948045055191065
-0.011413047767819373
-0.107807390888353
-0.6616822616885158
0.038708499986503275
0.07656803573875558
-0.8199368682298265
-0.5518766298854533
-0.7590711878983353
0.4970899092320011
-0.2951479003087234
0.779225675098365
-1.0460093129764447
-0.44777883451954736
0.42113860619914084
0.2992715014337664
-0.7181447607737732
-1.0377349051344296
-0.12090575820431303
-0.5204578710985308
-0.9372530353486128
0.8060994977881093
-0.4633392023732738
-0.49025245153172503
-0.9547293905483848
0.7597838202072602
0.529696090451204
0.31749767332532763
-0.32343350486920364
-0.39810505354704007
0.055910772269772036
0.33341434362098554
-0.2604584689712519
-0.8192543724719805
0.07707885022843976
-0.7430261269847271
-0.8605167949957191
0.11952252897150191
0.59426326920135
0.4282824169984404
0.14049437804124415
-0.5968878038462813
0.9205721982308943
-0.6577141209216394
-0.7548482564891558
-0.8404121499798712
-0.43327143518860456
0.3167276840250664
-0.1787695566604515
-0.9914100056531548
0.7512257018540875
-0.5211252969229404
-0.8352517523698795
0.4359057348094051
-0.7772979955296033
0.998535856709541
0.4672961051952651
0.8470026850213221
-0.12032046912941641
0.04223854668279303
0.478428131705388
0.6576264577739663
0.1262270694422869
-0.398932854651844
-0.9834367256383789
0.6104041499778727
0.6310162078859489
0.716263947331647
0.8451400661226594
-0.46777695733182045
0.7890660221612474
-0.661366121988323
-0.22523546905335623
-0.3919134007874623
0.15075809229825587
-0.22277167199671988
-0.8315039405873759
0.24721793298146877
-0.11594427783276218
0.6436494106066653
0.8374296529621823
0.5464996032038028
-0.38970341843282497
-0.6433604987827142
0.1457696210852546
-0.10626507435374277
0.5944179410370416
0.4108436189676343
-0.5445181780210433
0.2726353519439346
0.05174538336632417
0.5590204736341575
-0.5281975703998625
0.5473406592265754
-0.16584607236386587
0.789222459799561
-0.0418993838149138
0.4996498325083252
0.4889293518962908
0.9062128556189675
-0.6977472257739266
0.11101374272531804
-0.11456140574357836
0.06272997728302425
-0.7645809318529979
-0.9972988370670023
-0.5276377678315961
-0.2741593308884924
0.48196093979489407
0.19993923384518264
0.4136710818954019
0.8576683960721261
0.5057960617648547
-0.07836204226367993
-0.8972438469604982
-0.21759258222555666
-0.7056950555545098
-0.8347208272174067
-0.5862387959594129
-0.46272599979509915
-0.987490537106298
-0.7288963146683776
-0.7752363179421933
-0.4263691208595047
-0.9145548762224879
-0.0037836170336606845
0.17645250832354276
0.3932634833038062
-1.2229970467790092
-0.5557326258229042
-0.46676357840569693
0.5839505088991293
0.3851301154392661
0.8033200240337721
0.8537233391341991
0.5153509565397568
0.729217767305261
0.1774116220691665
-0.639914750645629
-0.7950162951294957
-0.009628420329195198
0.13475571646444418
-0.7340730870977568
0.01995516584537916
0.7619627369815045
-0.5354816156585882
0.6603991647813555
0.6628224257428942
-0.5539443114580357
0.1785798843967036
0.7008628941691404
-0.4673893131385508
-0.43896430762191724
-0.15344184584723872
-0.8748262949148794
-0.3579470178787593
-0.2004262045425606
-0.4197227044891168
0.2672042430808074
0.01833653978557182
0.2865712438674242
-0.17779695061138023
-0.5917361209379335
-0.6236659112205702
-0.5451090518125794
0.85379867868982
0.9151596649526623
0.5202364993689523
-0.019739580597962103
0.4864485727531278
0.6280369085423791
0.8968548071096989
0.7636727271825905
-0.9030510027211504
0.38570636757900956
0.6998115682705994
-0.9676066548556729
0.1969472245092221
0.8033729307704631
-0.6341693943443205
-0.8946688312074625
-0.16084071679447726
-0.10711720032873068
-0.7898372601827728
-0.6473180874263755
-0.5075871437215924
0.20164557883681933
-0.7610887084451738
-0.979445351971241
-0.5179713718072707
-0.2831975130895083
0.8114325184005942
0.09573742393636402
-0.5641087790717855
-0.6948603461189494
-0.6010315267674121
0.9183372871973599
0.1261722674817496
-0.7553386512525113
-0.6696516244191193
-0.11123004775581195
0.4161320113586727
0.44936181489806004
0.9538595234873437
-0.7076071229428386
-0.09116000496615333
0.5033820769191713
-0.7033553164206053
0.6608544153569456
0.8073993082589354
1.0163124330077382
0.15234450680417538
0.4198222764927257
0.8492198929154163
0.6410789813191909
0.932089375983109
1.5317146968968405
0.9453517682214919
0.1894971007079656
0.8207746313045426
0.5574410546868434
-0.3125316131200471
-0.2187208969923735
0.27494037316899766
-0.2749533265698063
-0.030187891341077133
-0.972435914729199
-0.780772822810091
0.7676443188362045
0.6618281847626799
-0.6489622357433426
-0.8669537957107992
0.8037484945139581
0.6054702211695193
0.7812805854377725
0.03907050763344991
-0.09891409130051607
0.39942539797953913
0.10403528454288137
-1.0278929453508137
-0.4943379349911923
0.3758880293747832
-0.12064151399291612
0.6851270687830148
0.7056975132896405
1.3696752478017244
1.1292453572028067
0.5245218347653018
1.105108145852723
0.7902070901570688
0.5550694182455597
-0.40262027861458993
0.9004422837596612
-0.03454560559679587
0.08463546841510343
-0.878594409637836
0.8532337598155539
-0.4798247017110616
0.10426574224666876
0.7953806194837435
-0.07600131189895894
1.026548286005158
0.11211956946853763
-0.33751901608207496
-0.6970060727806039
1.0423689033897345
0.875186302099879
-1.150873505040542
-0.958145352048779
-0.29468061680168994
-0.33158526080898837
0.8328228310697612
1.536021434600859
0.12042762028481231
1.8348395542655405
1.4758261804453794
1.427621686178917
0.2659882447255858
-0.3287924755850548
-0.5604404955928834
0.44580666058404733
-0.5239812589943665
-0.8654960743714251
-0.8298897502980659
-0.690325929784545
0.18761831290716613
0.00870267372299297
-0.18797250524050738
1.3839252318234436
0.0023096166019078153
0.5734057220914891
0.36124260299559013
-0.1861564126713689
-0.21170930267099328
-0.258087582383726
-1.2434595542048863
-0.27151336295058287
-0.9489995391394366
-0.4596691073359505
1.353502846232913
0.659122510343742
1.4042671733662715
0.33967859903160497
-0.11527706153517685
0.41797558563295095
1.191042615062902
1.0164805434903774
1.1060745590870333
0.5269132352906924
-0.6725264614662156
-0.8692897593846869
-0.7915468357584239
0.8520041967261724
-0.6091033356434733
0.16073352032671626
0.1359257619927642
0.9389963749020299
-0.46246641818423506
1.114644820802337
-0.2283036143085774
0.6834659529448263
-0.3846881285236748
-0.6518931870628897
-0.7233193961589623
0.24064928183709164
0.8523458070621911
1.2216172648430035
1.399108071624418
0.05168069159719041
0.9155812689570665
0.5388399252798747
0.8891196251250552
1.1198430059029922
0.05675133015543728
0.6551005652539199
0.26791952433134786
-0.4876733974639192
0.20323241313308574
-0.4598653047904889
0.019406839950160338
0.002104405713999003
-0.6620163009709811
-0.31522932618820304
-0.3676753061397177
-0.5105005430734675
-0.5739566092463608
0.138615392054817
-0.47126821015218234
-0.04533554947081248
-0.3556878814858605
-1.5280497039718763
-1.1147053704226653
0.5467405469253869
-0.036140015802985564
-0.23910623050191168
0.431509746829194
0.9054448779280362
0.032145901067455705
0.6829252865940652
-0.24763381408263643
0.6875165279860241
1.0832424218051349
-0.34058873422860086
-0.4065305374412698
-0.9261787240076885
0.2453966065463435
0.09406898291730928
0.8750414133726246
-0.9378055318890873
-0.08778585288032893
0.46540753172464105
0.26492146163701163
0.3323765671777285
0.5754897427364147
-0.6565377230216636
-0.79867862836081
-0.6610261019304329
-0.85067413034703
-1.4890161071631687
-0.5171301552213722
-0.31282902765542225
0.2756526384419044
-0.6967438132007368
-0.11642767638474619
-0.13624979313036462
-0.8968016360096283
-0.1712782654359898
-0.05644051973198909
-0.1423623302455903
-0.5372976743279928
0.7769954875386653
0.019330381394079086
0.3619257619678128
-0.14880997819327896
-0.8507514309714133
0.2511582902019381
0.07764142503050481
-0.17763694711720426
0.01778117762946486
0.17765374141241394
-0.5088826318699019
0.47704189465292857
0.1189980638259378
0.0712220752886068
0.25596512811566663
0.1643840681219702
0.4473554338487463
0.08116583132534931
-1.1720545884692573
-0.5744900541062566
-1.0603375582524168
0.15932772723882507
-1.1337380879468206
